svm_type c_svc
kernel_type rbf
gamma 0.0014492753623188406
nr_class 2
total_sv 166
rho 0.98972096678693078
label 1 -1
probA -574.80820303161124
probB -572.37880878485555
nr_sv 80 86
SV
1 1:0.0446 2:0.051 3:0.0572 4:0.0552 5:0.0474 6:0.0316 7:0.03 8:0.0342 9:0.0854 10:0.0736 11:0.0636 12:0.0547 13:0.0453 14:0.0349 15:0.0312 16:0.047 17:0.0871 18:0.053 19:0.0358 20:0.0387 21:0.0502 22:0.0595 23:0.0465 24:0.0751 25:0.0462 26:0.0404 27:0.0211 28:0.0295 29:0.0497 30:0.0622 31:0.0559 32:0.0497 33:0.0519 34:0.0485 35:0.0568 36:0.0805 37:0.0754 38:0.0456 39:0.028 40:0.0382 41:0.1557 42:0.0775 43:0.0639 44:0.0658 45:0.0618 46:0.0439 47:0.0362 48:0.0714 49:0.1678 50:0.077 51:0.0345 52:0.041 53:0.0645 54:0.0625 55:0.0488 56:0.0803 57:0.0651 58:0.0439 59:0.0329 60:0.0468 61:0.0753 62:0.0779 63:0.0505 64:0.0501 65:0.0591 66:0.0337 67:0.0338 68:0.0552 69:0.0765 70:0.0559 71:0.0474 72:0.0521 73:0.1607 74:0.0766 75:0.0413 76:0.0478 77:0.0626 78:0.0578 79:0.0565 80:0.0803 81:0.1703 82:0.0854 83:0.0612 84:0.0564 85:0.0647 86:0.045 87:0.0361 88:0.0743 89:0.0635 90:0.0523 91:0.0581 92:0.0602 93:0.0734 94:0.058 95:0.0398 96:0.0365 97:0.0435 98:0.0341 99:0.0293 100:0.0381 101:0.0539 102:0.0446 103:0.0418 104:0.04 105:0.0799 106:0.0653 107:0.0373 108:0.0309 109:0.0457 110:0.036 111:0.0529 112:0.0724 113:0.1074 114:0.0745 115:0.0509 116:0.0383 117:0.0431 118:0.0315 119:0.0379 120:0.065 121:0.0512 122:0.0425 123:0.0452 124:0.0498 125:0.0496 126:0.0351 127:0.0313 128:0.0377 129:0 130:0 131:0 132:0.0001 133:0 134:0 135:0.0001 136:0.0001 137:0 138:0 139:0 140:0 141:0 142:0 143:0 144:0 145:0 146:0 147:0.0007 148:0.0029 149:0 150:0.0009 151:0.0014 152:0.0007 153:0 154:0.0006 155:0.0001 156:0 157:0 158:0.0001 159:0 160:0 161:0.0009 162:0.003 163:0.0138 164:0.0131 165:0.0006 166:0.0268 167:0.0131 168:0.0017 169:0.0016 170:0.0099 171:0.0037 172:0.0014 173:0.0026 174:0.0046 175:0.0001 176:0 177:0 178:0.0066 179:0.0122 180:0.0037 181:0.0037 182:0.0314 183:0.0272 184:0 185:0.0068 186:0.0339 187:0.0236 188:0 189:0.0202 190:0.0166 191:0.0076 192:0 193:0.0006 194:0.0084 195:0.0061 196:0.0024 197:0.0032 198:0.0551 199:0.0778 200:0.0035 201:0.0107 202:0.1613 203:0.0589 204:0 205:0.0244 206:0.0442 207:0.0003 208:0 209:0.0003 210:0.0066 211:0.0069 212:0.002 213:0.0029 214:0.022 215:0.0301 216:0.002 217:0.0026 218:0.0012 219:0 220:0 221:0.0035 222:0 223:0 224:0 225:0.0004 226:0.0049 227:0.0078 228:0.0023 229:0.0017 230:0.0043 231:0.0271 232:0.0036 233:0.0012 234:0 235:0 236:0 237:0.0004 238:0 239:0 240:0 241:0.0001 242:0.0062 243:0.0029 244:0.0013 245:0.0009 246:0.0006 247:0.0001 248:0.0016 249:0.0006 250:0 251:0 252:0 253:0 254:0 255:0 256:0 257:0.0004 258:0.0088 259:0.0052 260:0.0075 261:0.0006 262:0.0003 263:0 264:0 265:0.0001 266:0 267:0 268:0 269:0 270:0 271:0 272:0 273:0.0004 274:0.0084 275:0.0182 276:0.0146 277:0 278:0.0033 279:0.0153 280:0.0042 281:0 282:0 283:0 284:0 285:0 286:0 287:0 288:0 289:0 290:0.0006 291:0.0012 292:0.0022 293:0 294:0.0001 295:0.0009 296:0.0029 297:0 298:0 299:0 300:0 301:0 302:0 303:0 304:0 305:0 306:0 307:0 308:0.0001 309:0 310:0 311:0 312:0 313:0 314:0 315:0 316:0 317:0 318:0 319:0 320:0 321:0 322:0 323:0 324:0.0006 325:0 326:0 327:0 328:0 329:0 330:0 331:0 332:0 333:0 334:0 335:0 336:0 337:0 338:0 339:0 340:0.0004 341:0 342:0 343:0 344:0 345:0 346:0 347:0 348:0 349:0 350:0 351:0 352:0 353:0 354:0 355:0 356:0.0001 357:0 358:0 359:0 360:0 361:0 362:0 363:0 364:0 365:0 366:0 367:0 368:0 369:0 370:0 371:0 372:0.0001 373:0 374:0 375:0 376:0 377:0 378:0 379:0 380:0 381:0 382:0 383:0 384:0 385:0.1769 386:-0.0298 387:0.041 388:0.0264 389:0.0256 390:0.0258 391:-0.0307 392:-0.0085 393:0.0244 394:0.1318 395:-0.0411 396:0.0431 397:0.0521 398:0.0208 399:0.0353 400:0.0224 401:-0.0202 402:0.0315 403:0.1717 404:-0.0566 405:0.0634 406:0.0303 407:0.0253 408:0.041 409:-0.0324 410:0.0148 411:-0.0206 412:0.1469 413:-0.0446 414:0.0849 415:0.0288 416:0.0193 417:0.0319 418:-0.0134 419:-0.0166 420:0.0123 421:0.1442 422:-0.0438 423:0.0685 424:0.0374 425:0.0197 426:0.03 427:0.0085 428:-0.0175 429:0.0205 430:0.1919 431:-0.0114 432:0.0171 433:0.0447 434:0.0198 435:0.0382 436:-0.033 437:-0.0243 438:0.0402 439:0.1784 440:-0.0225 441:0.0246 442:0.0305 443:0.0247 444:0.0453 445:-0.0329 446:-0.0264 447:0.0383 448:0.1756 449:-0.0536 450:0.0612 451:0.0258 452:0.0172 453:0.0266 454:-0.029 455:-0.0124 456:0.0182 457:0.173 458:-0.0336 459:0.0529 460:0.0342 461:0.0191 462:0.0297 463:-0.0321 464:-0.0208 465:0.0306 466:0.1664 467:-0.0294 468:0.0641 469:0.0312 470:0.0167 471:0.0307 472:-0.0216 473:-0.0177 474:0.0271 475:0.1834 476:0.0005 477:0.0229 478:0.0359 479:0.0098 480:0.0248 481:-0.0292 482:-0.011 483:0.0263 484:0.1788 485:-0.024 486:0.0415 487:0.0361 488:0.0263 489:0.0379 490:-0.024 491:-0.0219 492:0.0289 493:0.1862 494:-0.0558 495:0.0689 496:0.0341 497:0.0175 498:0.032 499:-0.0327 500:-0.0178 501:0.0155 502:0.1865 503:-0.0609 504:0.0825 505:0.025 506:0.0137 507:0.0259 508:-0.027 509:-0.0144 510:0.0158 511:0.1708 512:-0.0456 513:0.0714 514:0.0227 515:0.0177 516:0.027 517:-0.0176 518:0.0093 519:0.0186 520:0.1718 521:-0.0044 522:0.0282 523:0.0383 524:0.0122 525:0.0254 526:-0.0343 527:-0.0146 528:0.029 529:0.1997 530:-0.0052 531:0.0216 532:0.0347 533:0.0186 534:0.0277 535:-0.032 536:-0.0247 537:0.034 538:0.1791 539:-0.0577 540:0.0726 541:0.0337 542:0.0214 543:0.037 544:-0.0347 545:-0.017 546:-0.0153 547:0.1854 548:-0.048 549:0.0654 550:0.0225 551:0.0211 552:0.0313 553:-0.0243 554:-0.0125 555:0.0286 556:0.1835 557:-0.0368 558:0.056 559:0.0231 560:0.0155 561:0.0207 562:-0.0184 563:-0.0116 564:0.0217 565:0.2071 566:0.0018 567:0.0062 568:0.0364 569:0.0058 570:0.0203 571:-0.0359 572:-0.0079 573:0.0301 574:0.1925 575:-0.0073 576:0.025 577:0.0373 578:0.0136 579:0.0293 580:-0.0264 581:-0.0163 582:0.0329 583:0.1595 584:-0.0459 585:0.065 586:0.0364 587:0.0224 588:0.0288 589:-0.03 590:-0.0173 591:0.0213 592:0.191 593:-0.0308 594:0.0459 595:0.0209 596:0.014 597:0.023 598:-0.019 599:-0.009 600:0.0207 601:0.1909 602:-0.0225 603:0.0437 604:0.0299 605:0.0141 606:0.0276 607:-0.0115 608:-0.0129 609:0.025 610:0.0099 611:0.0087 612:0.0025 613:0.0516 614:0.0424 615:0.0124 616:0.1553 617:0.2033 618:0.0858 619:0.0075 620:0.0085 621:0.0025 622:0.0363 623:0.06 624:0.0155 625:0.1942 626:0.1625 627:0.0442 628:0.0123 629:0.0111 630:0.0044 631:0.0437 632:0.0359 633:0.0198 634:0.2327 635:0.0668 636:0.0744 637:0.0278 638:0.0265 639:0.0101 640:0.1433 641:0.0949 642:0.042 643:0.3775 644:0.2623 645:0.1387 646:0.0163 647:0.0109 648:0.0042 649:0.0991 650:0.0541 651:0.0246 652:0.1401 653:0.1384 654:0.0556 655:0.0105 656:0.0111 657:0.0058 658:0.0537 659:0.0355 660:0.0138 661:0.1439 662:0.0443 663:0.0346 664:0.0377 665:0.0307 666:0.0103 667:0.1199 668:0.0809 669:0.0457 670:0.5272 671:0.1095 672:0.0947 673:0.0185 674:0.0142 675:0.0072 676:0.1022 677:0.0373 678:0.0233 679:0.1925 680:0.1167 681:0.1462 682:0.0284 683:0.0177 684:0.0109 685:0.0605 686:0.0343 687:0.045 688:0.0949 689:0.0592 690:0.0728 
1 1:0.0528 2:0.0564 3:0.0546 4:0.0432 5:0.0388 6:0.0295 7:0.0283 8:0.0358 9:0.105 10:0.0807 11:0.0597 12:0.0395 13:0.0312 14:0.0284 15:0.0326 16:0.0603 17:0.0972 18:0.0653 19:0.0456 20:0.0399 21:0.0458 22:0.0466 23:0.0449 24:0.0621 25:0.0517 26:0.04 27:0.0297 28:0.0366 29:0.0573 30:0.0582 31:0.0375 32:0.0428 33:0.0745 34:0.0579 35:0.0459 36:0.0525 37:0.0621 38:0.0452 39:0.0307 40:0.0387 41:0.1716 42:0.0849 43:0.0523 44:0.0519 45:0.0505 46:0.0434 47:0.0316 48:0.0718 49:0.1643 50:0.0753 51:0.0377 52:0.0412 53:0.0717 54:0.0657 55:0.0484 56:0.0772 57:0.0666 58:0.0447 59:0.0395 60:0.0515 61:0.0835 62:0.0659 63:0.0463 64:0.0535 65:0.0711 66:0.0407 67:0.0214 68:0.0403 69:0.0654 70:0.0529 71:0.0514 72:0.0558 73:0.1706 74:0.0692 75:0.0292 76:0.0391 77:0.0498 78:0.0525 79:0.0556 80:0.081 81:0.171 82:0.0642 83:0.043 84:0.061 85:0.0726 86:0.0442 87:0.0381 88:0.0845 89:0.062 90:0.0441 91:0.0486 92:0.062 93:0.0876 94:0.0604 95:0.0383 96:0.0494 97:0.0495 98:0.0442 99:0.0212 100:0.0257 101:0.0418 102:0.0493 103:0.0567 104:0.0465 105:0.1068 106:0.058 107:0.0263 108:0.0264 109:0.0354 110:0.0392 111:0.0564 112:0.0734 113:0.1081 114:0.0691 115:0.0407 116:0.0479 117:0.0528 118:0.0325 119:0.0317 120:0.0604 121:0.0479 122:0.0446 123:0.0462 124:0.0564 125:0.0639 126:0.0392 127:0.0251 128:0.039 129:0.0001 130:0.0001 131:0.0001 132:0.0001 133:0 134:0 135:0.0009 136:0.0006 137:0 138:0 139:0.0003 140:0.0003 141:0 142:0 143:0 144:0 145:0 146:0.0034 147:0.0074 148:0.0176 149:0.0003 150:0.02 151:0.0527 152:0.0393 153:0.0008 154:0.0319 155:0.0211 156:0.0058 157:0.0097 158:0.0128 159:0.0021 160:0.0019 161:0.0004 162:0.0104 163:0.0118 164:0.034 165:0.0025 166:0.0477 167:0.0289 168:0.0118 169:0.0112 170:0.047 171:0.0044 172:0.0024 173:0.0304 174:0.0136 175:0.0006 176:0.0001 177:0.0003 178:0.0121 179:0.0079 180:0.0035 181:0.0073 182:0.0229 183:0.0107 184:0.0004 185:0.0154 186:0.0495 187:0.0035 188:0 189:0.0378 190:0.032 191:0 192:0 193:0.0009 194:0.0051 195:0.003 196:0.0006 197:0.0029 198:0.0082 199:0.0038 200:0 201:0.0103 202:0.0358 203:0.0018 204:0 205:0.0446 206:0.0342 207:0 208:0 209:0 210:0.0026 211:0.0026 212:0.0004 213:0.0025 214:0.0028 215:0.005 216:0 217:0.0036 218:0.0001 219:0 220:0 221:0.009 222:0 223:0 224:0 225:0.0009 226:0.0016 227:0.0009 228:0.0003 229:0.001 230:0.0003 231:0.0031 232:0 233:0.0001 234:0 235:0 236:0 237:0 238:0 239:0 240:0 241:0.0005 242:0.0034 243:0.003 244:0.0004 245:0.0006 246:0 247:0 248:0 249:0 250:0 251:0 252:0 253:0 254:0 255:0 256:0 257:0.0001 258:0.0049 259:0.01 260:0.0049 261:0.0008 262:0 263:0 264:0 265:0 266:0 267:0 268:0 269:0 270:0 271:0 272:0 273:0.0005 274:0.0033 275:0.0615 276:0.0229 277:0 278:0.0001 279:0.001 280:0.0001 281:0.0001 282:0 283:0 284:0 285:0 286:0 287:0 288:0 289:0 290:0.0003 291:0.0024 292:0.0008 293:0 294:0 295:0 296:0 297:0 298:0 299:0 300:0 301:0 302:0 303:0 304:0 305:0 306:0 307:0.0001 308:0.0003 309:0 310:0 311:0 312:0 313:0 314:0 315:0 316:0 317:0 318:0 319:0 320:0 321:0 322:0 323:0.0001 324:0 325:0 326:0 327:0 328:0 329:0 330:0 331:0 332:0 333:0 334:0 335:0 336:0 337:0 338:0 339:0 340:0 341:0 342:0 343:0 344:0 345:0 346:0 347:0 348:0 349:0 350:0 351:0 352:0 353:0 354:0 355:0.0003 356:0 357:0 358:0 359:0 360:0 361:0 362:0 363:0 364:0 365:0 366:0 367:0 368:0 369:0 370:0.0001 371:0 372:0 373:0 374:0 375:0 376:0 377:0 378:0 379:0 380:0 381:0 382:0 383:0 384:0 385:0.1614 386:-0.0258 387:0.0593 388:0.0424 389:0.0247 390:0.0384 391:-0.0389 392:-0.0253 393:0.0331 394:0.1405 395:-0.06 396:0.0856 397:0.0432 398:0.0294 399:0.0395 400:-0.037 401:0.0202 402:-0.0213 403:0.1479 404:-0.0546 405:0.0704 406:0.0468 407:0.0225 408:0.033 409:-0.0376 410:-0.0095 411:0.0167 412:0.1854 413:-0.0296 414:0.0605 415:0.0396 416:0.0221 417:0.0326 418:0.0201 419:-0.0164 420:0.0272 421:0.185 422:-0.0173 423:0.0533 424:0.0349 425:0.016 426:0.0246 427:-0.0318 428:-0.0148 429:0.0278 430:0.16 431:-0.024 432:0.0702 433:0.0375 434:0.0256 435:0.0388 436:-0.0337 437:-0.025 438:0.0313 439:0.1666 440:-0.0115 441:0.0762 442:0.0396 443:0.0136 444:0.0339 445:-0.0365 446:-0.0142 447:0.0276 448:0.1642 449:-0.0107 450:0.0619 451:0.039 452:0.0097 453:0.0317 454:-0.0368 455:-0.012 456:0.0274 457:0.2031 458:-0.0065 459:0.0407 460:0.0361 461:0.0092 462:0.0428 463:-0.0266 464:-0.0093 465:0.0344 466:0.186 467:-0.0033 468:0.0623 469:0.0278 470:0.0053 471:0.0275 472:0.0176 473:-0.005 474:0.0276 475:0.148 476:-0.044 477:0.0873 478:0.0334 479:0.0275 480:0.0296 481:-0.0283 482:0.018 483:0.0183 484:0.1585 485:-0.0501 486:0.0871 487:0.0316 488:0.0213 489:0.0333 490:-0.0248 491:-0.0115 492:-0.0096 493:0.193 494:-0.0105 495:0.0239 496:0.0318 497:0.0139 498:0.0428 499:-0.0332 500:-0.0157 501:0.0416 502:0.2022 503:-0.0077 504:0.0184 505:0.0439 506:0.0077 507:0.0358 508:-0.0361 509:-0.0096 510:0.0361 511:0.1933 512:-0 513:0.0564 514:0.0262 515:0.0099 516:0.0315 517:-0.0152 518:0.0096 519:0.0336 520:0.1471 521:-0.0374 522:0.0774 523:0.0412 524:0.0273 525:0.0311 526:0.0255 527:-0.0223 528:0.0188 529:0.1531 530:-0.0326 531:0.0636 532:0.0391 533:0.022 534:0.0462 535:-0.029 536:-0.0185 537:-0.0178 538:0.1744 539:-0.0164 540:0.0465 541:0.0594 542:0.0213 543:0.0393 544:-0.0375 545:-0.0238 546:0.0272 547:0.1944 548:-0.0013 549:0.0441 550:0.0327 551:0.005 552:0.0244 553:-0.0101 554:-0.0051 555:0.0212 556:0.1986 557:-0.0009 558:0.0366 559:0.0307 560:0.0074 561:0.0222 562:0.0094 563:0.0083 564:0.0289 565:0.1468 566:-0.0213 567:0.0807 568:0.0378 569:0.0207 570:0.0313 571:-0.0327 572:0.0142 573:0.0223 574:0.1548 575:-0.0198 576:0.0766 577:0.0433 578:0.0164 579:0.0319 580:-0.0257 581:-0.0122 582:0.0244 583:0.1608 584:-0.0238 585:0.0706 586:0.0487 587:0.0208 588:0.0339 589:0.0226 590:-0.0209 591:0.026 592:0.2091 593:-0.0012 594:0.0445 595:0.0378 596:0.0044 597:0.0261 598:-0.0297 599:-0.0042 600:0.0307 601:0.1977 602:-0.0037 603:0.052 604:0.0356 605:0.0094 606:0.0295 607:-0.0127 608:-0.0122 609:0.032 610:0.01 611:0.0066 612:0.0021 613:0.0549 614:0.0386 615:0.0187 616:0.1597 617:0.1422 618:0.0712 619:0.0158 620:0.011 621:0.0037 622:0.0573 623:0.0544 624:0.0311 625:0.2915 626:0.1858 627:0.1139 628:0.0151 629:0.018 630:0.0086 631:0.0647 632:0.0676 633:0.0338 634:0.1032 635:0.1195 636:0.0918 637:0.0106 638:0.0076 639:0.0033 640:0.0424 641:0.027 642:0.0156 643:0.1484 644:0.1504 645:0.0283 646:0.0239 647:0.0062 648:0.004 649:0.1292 650:0.0234 651:0.0248 652:0.1774 653:0.1091 654:0.0327 655:0.0246 656:0.0129 657:0.0076 658:0.1336 659:0.0561 660:0.0334 661:0.2673 662:0.2138 663:0.0527 664:0.0192 665:0.0189 666:0.0096 667:0.066 668:0.0653 669:0.0275 670:0.0879 671:0.1017 672:0.0603 673:0.0415 674:0.0277 675:0.0135 676:0.123 677:0.0849 678:0.0506 679:0.5117 680:0.1753 681:0.1399 682:0.0487 683:0.0185 684:0.0106 685:0.1545 686:0.062 687:0.0463 688:0.2866 689:0.0928 690:0.105 
1 1:0.0537 2:0.041 3:0.0347 4:0.041 5:0.0443 6:0.0315 7:0.0217 8:0.0369 9:0.1173 10:0.0573 11:0.0356 12:0.034 13:0.0418 14:0.0303 15:0.0334 16:0.0687 17:0.1104 18:0.0436 19:0.0226 20:0.0246 21:0.0528 22:0.0475 23:0.0499 24:0.0743 25:0.0464 26:0.0288 27:0.0172 28:0.0219 29:0.0561 30:0.0549 31:0.048 32:0.0479 33:0.0769 34:0.0449 35:0.0413 36:0.0512 37:0.0583 38:0.0385 39:0.0268 40:0.0426 41:0.1727 42:0.0682 43:0.0474 44:0.0542 45:0.058 46:0.0413 47:0.0351 48:0.0829 49:0.1691 50:0.0739 51:0.0358 52:0.0397 53:0.0664 54:0.0584 55:0.0505 56:0.0756 57:0.0638 58:0.0375 59:0.03 60:0.049 61:0.0772 62:0.0635 63:0.047 64:0.0453 65:0.0692 66:0.0409 67:0.0301 68:0.0482 69:0.0567 70:0.0514 71:0.041 72:0.0399 73:0.1798 74:0.085 75:0.0393 76:0.0529 77:0.0578 78:0.0445 79:0.037 80:0.0614 81:0.1698 82:0.0697 83:0.0538 84:0.0674 85:0.0626 86:0.0388 87:0.028 88:0.0676 89:0.0683 90:0.0401 91:0.0408 92:0.0706 93:0.0784 94:0.0418 95:0.0342 96:0.0407 97:0.0466 98:0.0376 99:0.0269 100:0.0322 101:0.0461 102:0.0418 103:0.0347 104:0.0376 105:0.1128 106:0.0636 107:0.031 108:0.0339 109:0.0432 110:0.0336 111:0.0382 112:0.0604 113:0.1243 114:0.0727 115:0.0421 116:0.0465 117:0.0377 118:0.0246 119:0.0289 120:0.0535 121:0.0496 122:0.0441 123:0.0382 124:0.052 125:0.0552 126:0.0283 127:0.0299 128:0.0278 129:0.0001 130:0.0004 131:0.0032 132:0.0013 133:0 134:0.0001 135:0.0009 136:0 137:0 138:0 139:0 140:0 141:0.0001 142:0 143:0 144:0 145:0 146:0.0017 147:0.0034 148:0.0016 149:0.0001 150:0.0063 151:0.0068 152:0.002 153:0.0007 154:0.009 155:0.0009 156:0 157:0.0035 158:0.0038 159:0 160:0 161:0.0001 162:0.0051 163:0.0033 164:0.0022 165:0.001 166:0.0088 167:0.0044 168:0.0015 169:0.0047 170:0.0064 171:0.0005 172:0.002 173:0.0132 174:0.0021 175:0 176:0.0025 177:0.0009 178:0.0143 179:0.0069 180:0.001 181:0.0021 182:0.0209 183:0.0135 184:0.0007 185:0.0086 186:0.0282 187:0.014 188:0 189:0.0217 190:0.0045 191:0.0019 192:0 193:0.0005 194:0.0101 195:0.0075 196:0.0019 197:0.0035 198:0.0489 199:0.0771 200:0.0013 201:0.0266 202:0.1147 203:0.026 204:0 205:0.084 206:0.0221 207:0 208:0 209:0.0003 210:0.0064 211:0.0048 212:0.0011 213:0.0033 214:0.0196 215:0.0339 216:0.0012 217:0.0128 218:0.0043 219:0 220:0 221:0.0171 222:0.0002 223:0 224:0 225:0.0007 226:0.0073 227:0.0026 228:0.0019 229:0.0008 230:0.0046 231:0.0013 232:0.0019 233:0.0002 234:0 235:0 236:0 237:0.0007 238:0 239:0 240:0 241:0.0005 242:0.0059 243:0.0029 244:0.0012 245:0.0002 246:0.0002 247:0.0003 248:0.0009 249:0 250:0 251:0 252:0 253:0 254:0 255:0 256:0 257:0.0002 258:0.008 259:0.0046 260:0.015 261:0.0005 262:0.0005 263:0 264:0 265:0 266:0 267:0 268:0 269:0 270:0 271:0 272:0 273:0.0002 274:0.014 275:0.035 276:0.0381 277:0.0001 278:0.0033 279:0.0108 280:0.0061 281:0 282:0 283:0 284:0 285:0 286:0 287:0 288:0 289:0 290:0.0036 291:0.019 292:0.0141 293:0 294:0.0001 295:0.0031 296:0.0126 297:0 298:0 299:0 300:0 301:0 302:0 303:0 304:0 305:0 306:0.0001 307:0.0001 308:0.0005 309:0.0001 310:0 311:0 312:0 313:0 314:0 315:0 316:0 317:0 318:0 319:0 320:0 321:0 322:0 323:0 324:0.0009 325:0 326:0 327:0 328:0 329:0 330:0 331:0 332:0 333:0 334:0 335:0 336:0 337:0 338:0 339:0.0001 340:0.0008 341:0 342:0 343:0 344:0 345:0 346:0 347:0 348:0 349:0 350:0 351:0 352:0 353:0 354:0 355:0 356:0.0003 357:0 358:0 359:0 360:0 361:0 362:0 363:0 364:0 365:0 366:0 367:0 368:0 369:0 370:0 371:0.001 372:0.0013 373:0 374:0 375:0 376:0 377:0 378:0 379:0 380:0 381:0 382:0 383:0 384:0 385:0.169 386:-0.0574 387:0.0603 388:0.0446 389:0.0198 390:0.0315 391:-0.0457 392:-0.0184 393:0.0245 394:0.1355 395:-0.0743 396:0.0808 397:0.0378 398:0.022 399:0.0272 400:-0.0217 401:0.0185 402:-0.02 403:0.1509 404:-0.0525 405:0.0683 406:0.0487 407:0.0357 408:0.0473 409:0.0389 410:0.0166 411:-0.0327 412:0.1852 413:-0.0109 414:0.0034 415:0.0305 416:0.0233 417:0.0349 418:-0.0268 419:-0.0331 420:0.0412 421:0.1882 422:-0.0077 423:0.0057 424:0.0265 425:0.0169 426:0.0375 427:-0.0252 428:-0.0197 429:0.0449 430:0.1939 431:-0.0508 432:0.0572 433:0.02 434:0.0171 435:0.0253 436:-0.0187 437:-0.0061 438:0.024 439:0.1386 440:-0.0539 441:0.0626 442:0.0543 443:0.024 444:0.028 445:0.036 446:0.0134 447:0.0232 448:0.1548 449:-0.0316 450:0.0616 451:0.0489 452:0.0296 453:0.0454 454:0.0388 455:-0.0242 456:0.032 457:0.2306 458:-0.0012 459:-0.0175 460:0.0258 461:0.0088 462:0.0144 463:-0.0258 464:-0.0128 465:0.0166 466:0.172 467:-0.0397 468:0.0549 469:0.0316 470:0.0264 471:0.0457 472:-0.0151 473:0.0101 474:-0.0275 475:0.1881 476:-0.0268 477:0.0388 478:0.0291 479:0.0231 480:0.0255 481:-0.0247 482:-0.0131 483:0.0238 484:0.1747 485:-0.0107 486:0.0313 487:0.0461 488:0.0273 489:0.0283 490:-0.0468 491:-0.0302 492:0.0311 493:0.1442 494:-0.0367 495:0.0525 496:0.0474 497:0.0344 498:0.0345 499:0.0123 500:-0.0204 501:0.0238 502:0.1696 503:-0.0371 504:0.0427 505:0.0446 506:0.0248 507:0.0432 508:-0.0098 509:0.0113 510:0.0233 511:0.1645 512:-0.0511 513:0.0673 514:0.0323 515:0.017 516:0.0284 517:-0.031 518:-0.0153 519:0.0243 520:0.1925 521:0.0028 522:0.0175 523:0.0423 524:0.0068 525:0.0274 526:-0.0368 527:0.0072 528:0.0289 529:0.1786 530:0.0014 531:0.0315 532:0.0359 533:0.0069 534:0.0272 535:-0.0285 536:-0.0055 537:0.0317 538:0.1823 539:-0.0039 540:0.0357 541:0.0417 542:0.0171 543:0.0323 544:-0.0329 545:-0.0213 546:0.033 547:0.168 548:-0.0435 549:0.0623 550:0.0359 551:0.0184 552:0.0293 553:-0.0229 554:-0.0066 555:0.016 556:0.1871 557:-0.0472 558:0.0674 559:0.0253 560:0.0203 561:0.0293 562:-0.028 563:0.0072 564:0.0205 565:0.1847 566:0.001 567:0.0314 568:0.0382 569:0.0081 570:0.0291 571:-0.0266 572:-0.0039 573:0.0316 574:0.172 575:-0.0027 576:0.031 577:0.0327 578:0.0078 579:0.0333 580:-0.0192 581:-0.0068 582:0.0352 583:0.187 584:0.0046 585:0.03 586:0.0293 587:0.0059 588:0.0222 589:-0.0239 590:-0.0033 591:0.0274 592:0.1895 593:-0.0297 594:0.0504 595:0.0343 596:0.0323 597:0.0364 598:-0.0272 599:-0.0224 600:0.0269 601:0.1938 602:-0.0549 603:0.0671 604:0.0275 605:0.0164 606:0.0344 607:-0.0256 608:-0.0149 609:0.0182 610:0.0044 611:0.0067 612:0.0014 613:0.021 614:0.0299 615:0.0073 616:0.1022 617:0.1693 618:0.0287 619:0.012 620:0.0144 621:0.0038 622:0.0563 623:0.0872 624:0.0282 625:0.3164 626:0.3163 627:0.0729 628:0.0113 629:0.0048 630:0.0022 631:0.041 632:0.0278 633:0.0192 634:0.1379 635:0.1127 636:0.03 637:0.016 638:0.016 639:0.0067 640:0.0611 641:0.0401 642:0.0388 643:0.1386 644:0.2596 645:0.1261 646:0.009 647:0.0171 648:0.0046 649:0.03 650:0.0796 651:0.0235 652:0.1416 653:0.2701 654:0.0826 655:0.0069 656:0.0146 657:0.0039 658:0.0402 659:0.0902 660:0.0228 661:0.128 662:0.4502 663:0.0717 664:0.0191 665:0.0325 666:0.0112 667:0.066 668:0.1561 669:0.0504 670:0.1121 671:0.2394 672:0.1143 673:0.0188 674:0.0185 675:0.0096 676:0.0863 677:0.07 678:0.0432 679:0.1352 680:0.2257 681:0.079 682:0.0166 683:0.0097 684:0.0033 685:0.0695 686:0.0358 687:0.0173 688:0.1141 689:0.1609 690:0.0314 
1 1:0.0616 2:0.0426 3:0.0302 4:0.0389 5:0.0375 6:0.0261 7:0.021 8:0.0332 9:0.1205 10:0.0728 11:0.0356 12:0.0371 13:0.0289 14:0.0293 15:0.036 16:0.0677 17:0.1107 18:0.0594 19:0.0308 20:0.0268 21:0.0303 22:0.0374 23:0.057 24:0.0771 25:0.0566 26:0.0378 27:0.024 28:0.0245 29:0.043 30:0.0484 31:0.0531 32:0.0437 33:0.0774 34:0.0437 35:0.0337 36:0.0459 37:0.0489 38:0.037 39:0.0333 40:0.0398 41:0.1832 42:0.0697 43:0.0404 44:0.0462 45:0.0432 46:0.0338 47:0.0354 48:0.0855 49:0.1709 50:0.0777 51:0.0354 52:0.0406 53:0.0545 54:0.0609 55:0.0442 56:0.068 57:0.0834 58:0.053 59:0.0368 60:0.0476 61:0.0601 62:0.0495 63:0.0424 64:0.0438 65:0.0733 66:0.0372 67:0.0235 68:0.0354 69:0.0532 70:0.0506 71:0.0373 72:0.0449 73:0.1786 74:0.0775 75:0.0292 76:0.0339 77:0.0476 78:0.0456 79:0.0406 80:0.0691 81:0.172 82:0.0744 83:0.0388 84:0.0562 85:0.0631 86:0.046 87:0.0347 88:0.0709 89:0.0802 90:0.0526 91:0.0394 92:0.0555 93:0.0634 94:0.0432 95:0.0382 96:0.0392 97:0.0505 98:0.0348 99:0.0267 100:0.0198 101:0.0405 102:0.0496 103:0.0389 104:0.0373 105:0.118 106:0.0577 107:0.0338 108:0.0228 109:0.03 110:0.03 111:0.0374 112:0.0658 113:0.1102 114:0.0752 115:0.0415 116:0.0391 117:0.0409 118:0.0243 119:0.0304 120:0.0545 121:0.0556 122:0.0545 123:0.039 124:0.0528 125:0.0496 126:0.0228 127:0.0287 128:0.026 129:0.0001 130:0.0078 131:0.0392 132:0.019 133:0 134:0.0002 135:0.0037 136:0.0046 137:0 138:0 139:0 140:0.0001 141:0 142:0 143:0 144:0 145:0.0004 146:0.0302 147:0.0486 148:0.0135 149:0 150:0.0154 151:0.0156 152:0.0021 153:0 154:0.0053 155:0.0056 156:0.0003 157:0.0001 158:0.001 159:0.0001 160:0.0001 161:0.0007 162:0.0188 163:0.0119 164:0.0037 165:0.0007 166:0.0142 167:0.0204 168:0.0124 169:0.0011 170:0.0166 171:0.0389 172:0.0321 173:0.0127 174:0.0441 175:0.0448 176:0.1314 177:0.0007 178:0.0081 179:0.0074 180:0.0007 181:0.0005 182:0.0108 183:0.0071 184:0 185:0.0009 186:0.0201 187:0.0026 188:0 189:0.016 190:0.0281 191:0 192:0 193:0.0006 194:0.0022 195:0.0016 196:0.0003 197:0.0001 198:0.1039 199:0.005 200:0.0001 201:0.0025 202:0.0196 203:0.0002 204:0 205:0.0412 206:0.0273 207:0 208:0 209:0 210:0.0014 211:0.0004 212:0.0002 213:0.0001 214:0.0034 215:0 216:0 217:0.0021 218:0 219:0 220:0 221:0.0051 222:0 223:0 224:0 225:0 226:0.0006 227:0.0009 228:0 229:0 230:0.0002 231:0 232:0 233:0 234:0 235:0 236:0 237:0 238:0 239:0 240:0 241:0 242:0.0006 243:0.0004 244:0.0004 245:0 246:0.0001 247:0 248:0 249:0 250:0 251:0 252:0 253:0 254:0 255:0 256:0 257:0 258:0.001 259:0.0006 260:0.0004 261:0 262:0 263:0 264:0 265:0 266:0 267:0 268:0 269:0 270:0 271:0 272:0 273:0 274:0.0009 275:0.0019 276:0.0006 277:0 278:0 279:0 280:0 281:0 282:0 283:0 284:0 285:0 286:0 287:0 288:0 289:0 290:0.0005 291:0.0028 292:0.001 293:0 294:0 295:0 296:0 297:0 298:0 299:0 300:0 301:0 302:0 303:0 304:0 305:0 306:0.0005 307:0.0052 308:0.003 309:0 310:0 311:0 312:0 313:0 314:0 315:0 316:0 317:0 318:0 319:0 320:0 321:0 322:0.0006 323:0.0016 324:0.0025 325:0 326:0 327:0 328:0 329:0 330:0 331:0 332:0 333:0 334:0 335:0 336:0 337:0 338:0.0005 339:0.0019 340:0.0043 341:0 342:0 343:0 344:0 345:0 346:0 347:0 348:0 349:0 350:0 351:0 352:0 353:0 354:0.0006 355:0.0032 356:0.0028 357:0 358:0 359:0 360:0 361:0 362:0 363:0 364:0 365:0 366:0 367:0 368:0 369:0 370:0.0017 371:0.011 372:0.009 373:0 374:0 375:0 376:0 377:0 378:0 379:0 380:0 381:0 382:0 383:0 384:0 385:0.1527 386:-0.069 387:0.0998 388:0.0195 389:0.0197 390:0.0378 391:-0.0138 392:0.0072 393:-0.0257 394:0.1487 395:-0.0483 396:0.0944 397:0.0189 398:0.0361 399:0.035 400:0.0128 401:0.0221 402:-0.0241 403:0.1769 404:-0.0325 405:0.1609 406:0.0292 407:0.0074 408:0.0367 409:-0.0169 410:0.0054 411:-0.0349 412:0.1781 413:-0.035 414:0.1 415:0.0279 416:0.0071 417:0.0712 418:0.0163 419:0.0064 420:0.0535 421:0.1666 422:-0.0308 423:0.029 424:0.003 425:0.0019 426:0.0032 427:-0.0031 428:-0.0022 429:0.004 430:0.158 431:-0.057 432:0.0709 433:0.0323 434:0.0172 435:0.0228 436:-0.0338 437:-0.0182 438:0.0172 439:0.1298 440:-0.0591 441:0.0819 442:0.0282 443:0.0261 444:0.0312 445:-0.0206 446:0.0198 447:0.0068 448:0.1554 449:-0.0316 450:0.0925 451:0.0287 452:0.0275 453:0.0541 454:-0.0046 455:-0.0174 456:0.0268 457:0.1305 458:-0.0634 459:0.0899 460:0.0249 461:0.0229 462:0.0397 463:0.0228 464:0.01 465:0.0158 466:0.1622 467:-0.0352 468:0.0384 469:0.013 470:0.0129 471:0.0197 472:-0.0169 473:-0.0193 474:0.0292 475:0.1466 476:-0.0532 477:0.0763 478:0.0337 479:0.0149 480:0.036 481:-0.0366 482:0.0095 483:-0.0144 484:0.1622 485:-0.0315 486:0.0716 487:0.03 488:0.0198 489:0.0292 490:-0.0271 491:-0.0189 492:0.0259 493:0.1897 494:-0.0229 495:0.0788 496:0.0178 497:0.0131 498:0.0247 499:-0.02 500:-0.0146 501:0.025 502:0.1919 503:-0.037 504:0.1564 505:0.0308 506:0.0123 507:0.0501 508:-0.029 509:-0.0096 510:-0.0375 511:0.1641 512:-0.033 513:0.0446 514:0.0147 515:0.0082 516:0.0286 517:0.0168 518:-0.0071 519:0.0415 520:0.1485 521:-0.0544 522:0.0789 523:0.0289 524:0.0294 525:0.0378 526:0.0178 527:0.0109 528:0.001 529:0.1555 530:-0.0467 531:0.1159 532:0.053 533:0.0226 534:0.046 535:-0.0229 536:-0.0109 537:0.0345 538:0.1925 539:-0.0233 540:0.1086 541:0.0327 542:0.018 543:0.0736 544:-0.032 545:-0.0083 546:0.0275 547:0.1817 548:-0.0115 549:0.0509 550:0.0242 551:0.019 552:0.0668 553:0.01 554:-0.0168 555:0.073 556:0.1725 557:-0.0179 558:0.0264 559:0.0176 560:0.0154 561:0.016 562:0.0172 563:0.0109 564:0.0172 565:0.1428 566:-0.0541 567:0.0704 568:0.0275 569:0.0183 570:0.0259 571:-0.0298 572:-0.0168 573:0.023 574:0.1416 575:-0.032 576:0.0481 577:0.0369 578:0.0246 579:0.0336 580:-0.0269 581:-0.02 582:0.0279 583:0.1751 584:0.0004 585:0.0101 586:0.0174 587:0.0029 588:0.0073 589:0.0156 590:-0.001 591:0.0061 592:0.1944 593:0.005 594:0.0084 595:0.0197 596:0.0067 597:0.0111 598:-0.0086 599:0.0075 600:0.0125 601:0.1992 602:0.0019 603:0.004 604:0.0194 605:0.0056 606:0.0066 607:-0.0111 608:-0.0079 609:0.0066 610:0.0031 611:0.0048 612:0.0011 613:0.0184 614:0.0258 615:0.0058 616:0.0618 617:0.1315 618:0.0627 619:0.0068 620:0.0057 621:0.0016 622:0.029 623:0.0387 624:0.0071 625:0.3367 626:0.1025 627:0.0486 628:0.0025 629:0.0015 630:0.0007 631:0.0166 632:0.0062 633:0.0023 634:0.085 635:0.0636 636:0.0076 637:0.012 638:0.0033 639:0.0012 640:0.0399 641:0.0194 642:0.0071 643:0.3585 644:0.0918 645:0.0489 646:0.0095 647:0.0026 648:0.0013 649:0.0399 650:0.0145 651:0.0067 652:0.2652 653:0.0948 654:0.0176 655:0.0073 656:0.0038 657:0.0015 658:0.0416 659:0.0222 660:0.0061 661:0.2693 662:0.0683 663:0.0518 664:0.0047 665:0.0075 666:0.0009 667:0.0393 668:0.0249 669:0.0066 670:0.1802 671:0.1408 672:0.0279 673:0.0152 674:0.0118 675:0.0052 676:0.0708 677:0.0455 678:0.0197 679:0.503 680:0.2268 681:0.1024 682:0.0161 683:0.0107 684:0.0061 685:0.0391 686:0.0263 687:0.0177 688:0.3554 689:0.1407 690:0.0324 
1 1:0.0636 2:0.0481 3:0.0363 4:0.0322 5:0.0304 6:0.0223 7:0.0218 8:0.04 9:0.1328 10:0.0629 11:0.0412 12:0.0318 13:0.0309 14:0.0259 15:0.0325 16:0.0746 17:0.1054 18:0.0439 19:0.0291 20:0.0317 21:0.0574 22:0.0394 23:0.0427 24:0.0834 25:0.0411 26:0.0234 27:0.0201 28:0.0309 29:0.0639 30:0.0514 31:0.0427 32:0.0416 33:0.082 34:0.0535 35:0.0438 36:0.0407 37:0.0398 38:0.0322 39:0.0271 40:0.038 41:0.2001 42:0.0767 43:0.0448 44:0.0354 45:0.0447 46:0.0327 47:0.031 48:0.0846 49:0.1589 50:0.0614 51:0.0304 52:0.0393 53:0.087 54:0.0574 55:0.0383 56:0.0751 57:0.0613 58:0.0336 59:0.0267 60:0.0426 61:0.0778 62:0.0577 63:0.0386 64:0.0404 65:0.0848 66:0.0496 67:0.03 68:0.0265 69:0.0365 70:0.0355 71:0.0397 72:0.0465 73:0.199 74:0.0873 75:0.0357 76:0.0271 77:0.0407 78:0.0412 79:0.0392 80:0.0764 81:0.1641 82:0.0764 83:0.0406 84:0.0592 85:0.0831 86:0.044 87:0.0296 88:0.0626 89:0.0661 90:0.0482 91:0.032 92:0.0477 93:0.074 94:0.0435 95:0.0371 96:0.0373 97:0.0686 98:0.0443 99:0.0229 100:0.0174 101:0.0266 102:0.0213 103:0.0274 104:0.0479 105:0.1345 106:0.0678 107:0.0392 108:0.0296 109:0.0279 110:0.023 111:0.0271 112:0.0663 113:0.1144 114:0.0774 115:0.0487 116:0.0451 117:0.0511 118:0.0273 119:0.0221 120:0.05 121:0.0561 122:0.05 123:0.0375 124:0.0417 125:0.0467 126:0.0249 127:0.0243 128:0.0356 129:0 130:0.0014 131:0.0075 132:0.0053 133:0 134:0 135:0.0002 136:0.0017 137:0 138:0 139:0 140:0.0016 141:0 142:0 143:0 144:0 145:0.0001 146:0.0194 147:0.0781 148:0.0661 149:0.0002 150:0.0115 151:0.0338 152:0.0097 153:0 154:0.0008 155:0.0017 156:0.0011 157:0.0002 158:0 159:0 160:0 161:0.0003 162:0.0238 163:0.0489 164:0.0448 165:0.0031 166:0.024 167:0.0064 168:0.0013 169:0.0048 170:0.0118 171:0.0166 172:0.0035 173:0.0153 174:0.0983 175:0.0745 176:0.0512 177:0.0006 178:0.0156 179:0.019 180:0.004 181:0.0026 182:0.0111 183:0.0016 184:0.0001 185:0.0046 186:0.0075 187:0.0006 188:0 189:0.0355 190:0.0222 191:0.0001 192:0 193:0.0003 194:0.0044 195:0.0056 196:0.0003 197:0.0021 198:0.0152 199:0.0012 200:0 201:0.0039 202:0.0297 203:0 204:0 205:0.0382 206:0.0177 207:0 208:0 209:0 210:0.0014 211:0.0017 212:0.0003 213:0 214:0.0216 215:0 216:0 217:0.0037 218:0.022 219:0 220:0 221:0.0072 222:0.0008 223:0 224:0 225:0.0001 226:0.0007 227:0.0014 228:0.0011 229:0 230:0 231:0 232:0 233:0 234:0.0003 235:0 236:0 237:0.0001 238:0 239:0 240:0 241:0.0001 242:0.0003 243:0.0017 244:0.0002 245:0 246:0 247:0 248:0 249:0 250:0 251:0 252:0 253:0 254:0 255:0 256:0 257:0 258:0.0003 259:0.0014 260:0.0005 261:0 262:0 263:0 264:0 265:0 266:0 267:0 268:0 269:0 270:0 271:0 272:0 273:0 274:0.0006 275:0.0033 276:0.0024 277:0 278:0 279:0 280:0 281:0 282:0 283:0 284:0 285:0 286:0 287:0 288:0 289:0 290:0.0004 291:0.0028 292:0.0006 293:0 294:0 295:0 296:0 297:0 298:0 299:0 300:0 301:0 302:0 303:0 304:0 305:0 306:0.0003 307:0.0012 308:0.0003 309:0 310:0 311:0 312:0 313:0 314:0 315:0 316:0 317:0 318:0 319:0 320:0 321:0 322:0.0005 323:0.0008 324:0.0001 325:0 326:0 327:0 328:0 329:0 330:0 331:0 332:0 333:0 334:0 335:0 336:0 337:0.0002 338:0.0002 339:0.0006 340:0.0004 341:0 342:0 343:0 344:0 345:0 346:0 347:0 348:0 349:0 350:0 351:0 352:0 353:0.0001 354:0.0005 355:0.0013 356:0.0007 357:0 358:0 359:0 360:0 361:0 362:0 363:0 364:0 365:0 366:0 367:0 368:0 369:0 370:0.0004 371:0.0018 372:0.0009 373:0 374:0 375:0 376:0 377:0 378:0 379:0 380:0 381:0 382:0 383:0 384:0 385:0.0818 386:-0.0361 387:0.0379 388:0.0347 389:0.0256 390:0.0336 391:0.0396 392:-0.0221 393:0.0311 394:0.0926 395:-0.0471 396:0.0624 397:0.037 398:0.0261 399:0.0377 400:0.0379 401:-0.0168 402:0.0278 403:0.114 404:-0.038 405:0.0671 406:0.0576 407:0.026 408:0.055 409:0.053 410:-0.0179 411:0.0578 412:0.109 413:-0.0613 414:0.0818 415:0.0459 416:0.0294 417:0.0491 418:0.05 419:-0.0158 420:0.0467 421:0.0863 422:-0.0495 423:0.0608 424:0.0313 425:0.0301 426:0.0378 427:0.0317 428:0.009 429:-0.0279 430:0.1101 431:-0.0443 432:0.0761 433:0.0526 434:0.0268 435:0.0503 436:0.0479 437:-0.0235 438:0.0364 439:0.1747 440:-0.0522 441:0.141 442:0.0378 443:0.0197 444:0.0406 445:-0.0372 446:-0.0196 447:-0.0192 448:0.206 449:-0.0467 450:0.1752 451:0.0423 452:0.0154 453:0.0517 454:-0.0405 455:-0.0151 456:-0.0455 457:0.1164 458:-0.0525 459:0.0897 460:0.0599 461:0.0202 462:0.064 463:0.0628 464:-0.0108 465:0.0617 466:0.0872 467:-0.0507 468:0.0546 469:0.027 470:0.0223 471:0.0292 472:0.0307 473:-0.0137 474:0.0163 475:0.1286 476:-0.0589 477:0.0661 478:0.0386 479:0.023 480:0.0333 481:-0.0318 482:-0.011 483:0.0335 484:0.159 485:-0.0498 486:0.1216 487:0.0328 488:0.0165 489:0.0434 490:-0.0246 491:-0.0168 492:-0.0302 493:0.1875 494:-0.0483 495:0.1632 496:0.0408 497:0.0153 498:0.0499 499:-0.03 500:-0.0157 501:-0.0496 502:0.1118 503:-0.0571 504:0.0856 505:0.0507 506:0.0216 507:0.0509 508:0.0531 509:-0.0137 510:0.0518 511:0.1082 512:-0.0718 513:0.0772 514:0.0356 515:0.0254 516:0.0304 517:0.0274 518:0.0115 519:-0.0157 520:0.1405 521:-0.0658 522:0.0641 523:0.034 524:0.0211 525:0.0265 526:-0.03 527:-0.0167 528:0.0245 529:0.178 530:-0.0371 531:0.0459 532:0.0396 533:0.0334 534:0.0327 535:-0.0301 536:-0.0259 537:0.0329 538:0.202 539:-0.0144 540:0.0359 541:0.0495 542:0.026 543:0.0337 544:-0.05 545:-0.0317 546:0.0369 547:0.2053 548:-0.0167 549:0.035 550:0.0448 551:0.0327 552:0.03 553:-0.0461 554:-0.0347 555:0.0327 556:0.1684 557:-0.0351 558:0.0497 559:0.0516 560:0.0362 561:0.033 562:-0.0365 563:-0.0314 564:0.0308 565:0.1214 566:-0.0494 567:0.0566 568:0.052 569:0.0316 570:0.0366 571:0.0457 572:-0.0147 573:0.0202 574:0.2148 575:-0.0006 576:0.0115 577:0.0238 578:0.003 579:0.0119 580:-0.0155 581:-0.003 582:0.0128 583:0.2316 584:-0.0014 585:0.0127 586:0.0302 587:0.0026 588:0.0097 589:-0.0275 590:-0.0022 591:0.0098 592:0.224 593:-0.0007 594:0.0128 595:0.0286 596:0.0055 597:0.011 598:-0.019 599:-0.0089 600:0.0124 601:0.1807 602:-0.0287 603:0.0418 604:0.0315 605:0.0236 606:0.0282 607:-0.0255 608:-0.0187 609:0.022 610:0.0034 611:0.0014 612:0.0004 613:0.0138 614:0.0088 615:0.0028 616:0.0954 617:0.0805 618:0.0117 619:0.008 620:0.0089 621:0.0022 622:0.054 623:0.0466 624:0.0104 625:0.2161 626:0.4949 627:0.0431 628:0.002 629:0.0029 630:0.0007 631:0.0158 632:0.0199 633:0.0029 634:0.0599 635:0.1103 636:0.021 637:0.0118 638:0.0047 639:0.0033 640:0.0823 641:0.0193 642:0.014 643:0.3363 644:0.0481 645:0.0394 646:0.0135 647:0.0121 648:0.0026 649:0.0797 650:0.0803 651:0.0244 652:0.3085 653:0.1802 654:0.0555 655:0.0065 656:0.0032 657:0.0013 658:0.0221 659:0.0204 660:0.0055 661:0.1442 662:0.092 663:0.0232 664:0.0169 665:0.016 666:0.0073 667:0.0473 668:0.0445 669:0.0251 670:0.191 671:0.1512 672:0.0509 673:0.0388 674:0.0163 675:0.01 676:0.1307 677:0.0343 678:0.0457 679:0.3265 680:0.115 681:0.0535 682:0.0237 683:0.0177 684:0.008 685:0.0656 686:0.0406 687:0.0365 688:0.338 689:0.1689 690:0.0723 
1 1:0.0522 2:0.0426 3:0.0358 4:0.0505 5:0.0452 6:0.0295 7:0.0234 8:0.0353 9:0.1226 10:0.0631 11:0.0355 12:0.0309 13:0.0261 14:0.0263 15:0.0346 16:0.0746 17:0.1195 18:0.0375 19:0.0224 20:0.025 21:0.0503 22:0.0462 23:0.0584 24:0.0922 25:0.0607 26:0.0253 27:0.0155 28:0.0303 29:0.0669 30:0.0559 31:0.0477 32:0.057 33:0.072 34:0.0427 35:0.0332 36:0.0471 37:0.0481 38:0.0381 39:0.0371 40:0.0455 41:0.1939 42:0.0717 43:0.0311 44:0.0256 45:0.0376 46:0.0356 47:0.0372 48:0.0937 49:0.1712 50:0.0619 51:0.0186 52:0.0343 53:0.0778 54:0.0623 55:0.0442 56:0.077 57:0.0765 58:0.0363 59:0.0202 60:0.0422 61:0.0954 62:0.0685 63:0.0405 64:0.0402 65:0.0722 66:0.0371 67:0.0257 68:0.0318 69:0.0431 70:0.0437 71:0.0522 72:0.0487 73:0.1887 74:0.0877 75:0.0304 76:0.0238 77:0.041 78:0.0449 79:0.0478 80:0.0699 81:0.1738 82:0.0766 83:0.0411 84:0.049 85:0.0643 86:0.0462 87:0.0338 88:0.077 89:0.0608 90:0.0412 91:0.0365 92:0.0524 93:0.0856 94:0.0636 95:0.0452 96:0.0401 97:0.053 98:0.0341 99:0.0294 100:0.0249 101:0.0296 102:0.04 103:0.0479 104:0.0419 105:0.1171 106:0.0683 107:0.0381 108:0.0244 109:0.0264 110:0.0353 111:0.0472 112:0.0642 113:0.1213 114:0.0841 115:0.0464 116:0.0354 117:0.0339 118:0.0278 119:0.0331 120:0.0579 121:0.0417 122:0.0468 123:0.0408 124:0.054 125:0.0613 126:0.0385 127:0.028 128:0.0303 129:0 130:0 131:0 132:0 133:0 134:0 135:0 136:0 137:0 138:0 139:0 140:0 141:0 142:0 143:0 144:0 145:0 146:0 147:0 148:0 149:0 150:0 151:0 152:0 153:0 154:0 155:0 156:0 157:0 158:0 159:0 160:0 161:0 162:0 163:0 164:0.0002 165:0 166:0 167:0.0003 168:0.0008 169:0 170:0 171:0.0001 172:0.0016 173:0 174:0.0003 175:0.0016 176:0.0274 177:0 178:0 179:0.0011 180:0.0019 181:0 182:0.0014 183:0.0206 184:0.01 185:0 186:0.0097 187:0.0577 188:0.0135 189:0.0003 190:0.0095 191:0.0164 192:0.0089 193:0 194:0 195:0.0117 196:0.0229 197:0 198:0.0317 199:0.0955 200:0.0072 201:0.0001 202:0.0365 203:0.0079 204:0 205:0.0217 206:0.0109 207:0 208:0 209:0 210:0.0014 211:0.0381 212:0.0365 213:0 214:0.0578 215:0.0901 216:0.0008 217:0.0005 218:0.1623 219:0.0005 220:0 221:0.0489 222:0.0584 223:0 224:0 225:0 226:0.0001 227:0.0127 228:0.0268 229:0 230:0.011 231:0.0148 232:0.0008 233:0.0001 234:0.0021 235:0 236:0 237:0.0003 238:0.001 239:0 240:0 241:0 242:0 243:0.0001 244:0.0035 245:0 246:0.0001 247:0.0014 248:0.0001 249:0 250:0 251:0 252:0 253:0 254:0 255:0 256:0 257:0 258:0 259:0 260:0.0001 261:0 262:0 263:0 264:0 265:0 266:0 267:0 268:0 269:0 270:0 271:0 272:0 273:0 274:0 275:0 276:0 277:0 278:0 279:0 280:0 281:0 282:0 283:0 284:0 285:0 286:0 287:0 288:0 289:0 290:0 291:0 292:0 293:0 294:0 295:0 296:0 297:0 298:0 299:0 300:0 301:0 302:0 303:0 304:0 305:0 306:0 307:0 308:0 309:0 310:0 311:0 312:0 313:0 314:0 315:0 316:0 317:0 318:0 319:0 320:0 321:0 322:0 323:0 324:0 325:0 326:0 327:0 328:0 329:0 330:0 331:0 332:0 333:0 334:0 335:0 336:0 337:0 338:0 339:0 340:0 341:0 342:0 343:0 344:0 345:0 346:0 347:0 348:0 349:0 350:0 351:0 352:0 353:0 354:0 355:0 356:0 357:0 358:0 359:0 360:0 361:0 362:0 363:0 364:0 365:0 366:0 367:0 368:0 369:0 370:0 371:0 372:0 373:0 374:0 375:0 376:0 377:0 378:0 379:0 380:0 381:0 382:0 383:0 384:0 385:0.154 386:-0.0782 387:0.0624 388:0.0235 389:0.0212 390:0.0197 391:0.0106 392:-0.0156 393:0.02 394:0.1438 395:-0.0817 396:0.0705 397:0.0265 398:0.0212 399:0.0277 400:0.0232 401:0.0154 402:0.0216 403:0.1852 404:-0.0612 405:0.1035 406:0.0344 407:0.0179 408:0.0499 409:-0.0189 410:-0.0188 411:0.042 412:0.1816 413:-0.0509 414:0.081 415:0.0264 416:0.0155 417:0.03 418:-0.0249 419:-0.0177 420:0.0209 421:0.1719 422:-0.0587 423:0.0638 424:0.0282 425:0.022 426:0.0345 427:-0.0105 428:-0.0224 429:0.0404 430:0.1581 431:-0.0746 432:0.0594 433:0.0277 434:0.0212 435:0.0221 436:0.0087 437:-0.018 438:0.0238 439:0.1382 440:-0.0879 441:0.069 442:0.0189 443:0.0156 444:0.0224 445:0.0113 446:0.0104 447:0.0224 448:0.1724 449:-0.07 450:0.1027 451:0.042 452:0.0207 453:0.0529 454:0.0314 455:-0.0125 456:0.0509 457:0.1785 458:-0.0627 459:0.0883 460:0.0349 461:0.0212 462:0.0308 463:-0.0227 464:-0.021 465:0.0248 466:0.1723 467:-0.0669 468:0.0608 469:0.026 470:0.0183 471:0.0226 472:-0.0261 473:-0.0211 474:0.0274 475:0.1527 476:-0.0777 477:0.0594 478:0.025 479:0.0209 480:0.0211 481:0.0109 482:-0.0139 483:0.0223 484:0.1504 485:-0.0786 486:0.0664 487:0.0266 488:0.0204 489:0.0245 490:0.0074 491:-0.0136 492:0.0241 493:0.1596 494:-0.0681 495:0.057 496:0.0296 497:0.0254 498:0.0198 499:0.0253 500:0.0136 501:0.0165 502:0.1517 503:-0.0748 504:0.0659 505:0.0307 506:0.0222 507:0.0263 508:0.0203 509:-0.0111 510:0.0228 511:0.1677 512:-0.0706 513:0.058 514:0.0237 515:0.0187 516:0.0179 517:-0.0199 518:-0.0201 519:0.0225 520:0.1402 521:-0.0849 522:0.0638 523:0.0205 524:0.0176 525:0.0215 526:0.0169 527:0.0113 528:0.0205 529:0.172 530:-0.0595 531:0.048 532:0.0382 533:0.0291 534:0.0259 535:0.0259 536:-0.0158 537:0.0231 538:0.2059 539:-0.0314 540:0.0281 541:0.0273 542:0.0155 543:0.0162 544:-0.0275 545:-0.0212 546:0.0151 547:0.1858 548:-0.0451 549:0.0399 550:0.0251 551:0.021 552:0.0192 553:-0.0234 554:-0.0219 555:0.015 556:0.1717 557:-0.0681 558:0.055 559:0.0273 560:0.0192 561:0.018 562:-0.023 563:-0.0214 564:0.0225 565:0.1292 566:-0.0927 567:0.0716 568:0.0132 569:0.0102 570:0.021 571:-0.0088 572:0.004 573:0.0188 574:0.1754 575:-0.0428 576:0.0323 577:0.0254 578:0.0208 579:0.0173 580:-0.008 581:-0.0246 582:0.0199 583:0.2048 584:-0.029 585:0.0226 586:0.0199 587:0.0109 588:0.0131 589:0.0094 590:-0.011 591:0.0115 592:0.2056 593:-0.0275 594:0.0192 595:0.0201 596:0.0069 597:0.008 598:-0.0164 599:-0.0091 600:0.0059 601:0.1525 602:-0.0728 603:0.0529 604:0.0293 605:0.0213 606:0.0218 607:0.0132 608:-0.0117 609:0.0215 610:0.0037 611:0.0074 612:0.0011 613:0.0237 614:0.0289 615:0.0082 616:0.0826 617:0.1531 618:0.0524 619:0.0089 620:0.0065 621:0.0016 622:0.0555 623:0.0413 624:0.0093 625:0.365 626:0.2033 627:0.0432 628:0.0121 629:0.0085 630:0.0027 631:0.0642 632:0.0516 633:0.0157 634:0.357 635:0.2476 636:0.0633 637:0.0038 638:0.0065 639:0.0013 640:0.0238 641:0.0428 642:0.0098 643:0.161 644:0.1399 645:0.0346 646:0.0107 647:0.0084 648:0.0028 649:0.0498 650:0.0524 651:0.015 652:0.393 653:0.266 654:0.0491 655:0.0071 656:0.0071 657:0.0016 658:0.0313 659:0.0395 660:0.0114 661:0.2662 662:0.1324 663:0.0863 664:0.0046 665:0.0076 666:0.0022 667:0.0302 668:0.022 669:0.0103 670:0.0791 671:0.0696 672:0.0201 673:0.0183 674:0.0113 675:0.0055 676:0.0657 677:0.0447 678:0.0153 679:0.2812 680:0.1316 681:0.0667 682:0.0092 683:0.0103 684:0.0042 685:0.0375 686:0.0433 687:0.017 688:0.2423 689:0.1297 690:0.0502 
1 1:0.0533 2:0.0562 3:0.0475 4:0.0366 5:0.0342 6:0.0265 7:0.0274 8:0.0403 9:0.0938 10:0.0734 11:0.0506 12:0.0382 13:0.0404 14:0.0363 15:0.0381 16:0.0552 17:0.0921 18:0.0465 19:0.0306 20:0.0419 21:0.0511 22:0.0527 23:0.0514 24:0.077 25:0.0433 26:0.0255 27:0.0228 28:0.0463 29:0.0693 30:0.0667 31:0.0471 32:0.0475 33:0.0651 34:0.0491 35:0.0421 36:0.0434 37:0.05 38:0.0396 39:0.0382 40:0.0494 41:0.1608 42:0.0774 43:0.0424 44:0.0481 45:0.0599 46:0.0518 47:0.0357 48:0.0733 49:0.1656 50:0.0734 51:0.0254 52:0.0514 53:0.0798 54:0.0703 55:0.0478 56:0.0825 57:0.0637 58:0.0412 59:0.0252 60:0.0641 61:0.0956 62:0.0822 63:0.0532 64:0.0489 65:0.0653 66:0.0366 67:0.0364 68:0.0456 69:0.0445 70:0.0509 71:0.0478 72:0.0567 73:0.161 74:0.0684 75:0.042 76:0.0475 77:0.0577 78:0.0604 79:0.0548 80:0.0776 81:0.163 82:0.0835 83:0.0595 84:0.0776 85:0.0807 86:0.0442 87:0.0373 88:0.0754 89:0.0641 90:0.0541 91:0.0553 92:0.077 93:0.0857 94:0.0607 95:0.0371 96:0.0402 97:0.048 98:0.0421 99:0.0356 100:0.0334 101:0.0364 102:0.0425 103:0.0392 104:0.0472 105:0.0994 106:0.0582 107:0.0521 108:0.0476 109:0.044 110:0.0343 111:0.0386 112:0.0583 113:0.0918 114:0.0801 115:0.0682 116:0.0571 117:0.0573 118:0.0367 119:0.0324 120:0.0465 121:0.0549 122:0.0567 123:0.0636 124:0.0598 125:0.0552 126:0.0356 127:0.0259 128:0.0319 129:0 130:0.0025 131:0.0039 132:0.0007 133:0 134:0.0007 135:0.0047 136:0.0016 137:0 138:0.0003 139:0 140:0 141:0 142:0 143:0 144:0 145:0.0003 146:0.0143 147:0.0173 148:0.0057 149:0.0015 150:0.0275 151:0.04 152:0.0141 153:0.0017 154:0.0078 155:0.0021 156:0 157:0.0008 158:0.0007 159:0 160:0 161:0.0014 162:0.0275 163:0.017 164:0.0087 165:0.0046 166:0.0545 167:0.0284 168:0.01 169:0.0081 170:0.0194 171:0.0087 172:0.0123 173:0.0138 174:0.0182 175:0.0108 176:0.0127 177:0.0025 178:0.0205 179:0.0119 180:0.0035 181:0.0053 182:0.0279 183:0.0075 184:0.0007 185:0.0044 186:0.0538 187:0.0006 188:0.0003 189:0.0092 190:0.0223 191:0 192:0 193:0.0044 194:0.0164 195:0.0052 196:0.0005 197:0.0037 198:0.0222 199:0.0038 200:0 201:0.007 202:0.1064 203:0 204:0 205:0.0224 206:0.0218 207:0 208:0 209:0.0043 210:0.0125 211:0.0046 212:0.0007 213:0.0038 214:0.0045 215:0.0003 216:0 217:0.0025 218:0.0005 219:0 220:0 221:0.0061 222:0 223:0 224:0 225:0.0029 226:0.0102 227:0.0038 228:0.0008 229:0.003 230:0.0028 231:0.0008 232:0 233:0.0014 234:0.0001 235:0 236:0 237:0.0007 238:0 239:0 240:0 241:0.0021 242:0.0132 243:0.0035 244:0.0012 245:0.0023 246:0.0006 247:0 248:0 249:0.0003 250:0 251:0 252:0 253:0.0005 254:0 255:0 256:0 257:0.0018 258:0.0168 259:0.0088 260:0.0078 261:0.0012 262:0.0021 263:0.0003 264:0 265:0.0001 266:0 267:0 268:0 269:0.0001 270:0 271:0 272:0 273:0.0008 274:0.0096 275:0.0252 276:0.0138 277:0.0005 278:0.0053 279:0.0115 280:0.006 281:0 282:0.0001 283:0.0001 284:0 285:0 286:0 287:0 288:0 289:0.0001 290:0.0021 291:0.0029 292:0.0006 293:0 294:0 295:0 296:0 297:0 298:0 299:0 300:0 301:0 302:0 303:0 304:0 305:0.0001 306:0.0002 307:0.0006 308:0.0002 309:0 310:0 311:0 312:0 313:0 314:0 315:0 316:0 317:0 318:0 319:0 320:0 321:0 322:0.0001 323:0.0006 324:0.0001 325:0 326:0 327:0 328:0 329:0 330:0 331:0 332:0 333:0 334:0 335:0 336:0 337:0.0001 338:0 339:0.0001 340:0.0001 341:0 342:0 343:0 344:0 345:0 346:0 347:0 348:0 349:0 350:0 351:0 352:0 353:0 354:0.0005 355:0.0001 356:0.0003 357:0 358:0 359:0 360:0 361:0 362:0 363:0 364:0 365:0 366:0 367:0 368:0 369:0 370:0.0001 371:0.0003 372:0.0001 373:0 374:0 375:0 376:0 377:0 378:0 379:0 380:0 381:0 382:0 383:0 384:0 385:0.1738 386:-0.0451 387:0.0504 388:0.0234 389:0.0182 390:0.0269 391:-0.0198 392:-0.0152 393:0.0161 394:0.1847 395:-0.0349 396:0.0568 397:0.0263 398:0.0224 399:0.0231 400:0.0223 401:0.0158 402:0.0213 403:0.1855 404:-0.0198 405:0.0594 406:0.0283 407:0.0191 408:0.0284 409:0.0182 410:-0.0163 411:0.0295 412:0.1749 413:-0.0355 414:0.0551 415:0.0346 416:0.0239 417:0.0237 418:-0.0283 419:-0.0195 420:0.0251 421:0.174 422:-0.0337 423:0.0325 424:0.0339 425:0.0181 426:0.0212 427:-0.0294 428:-0.0197 429:0.0222 430:0.1601 431:-0.0517 432:0.0532 433:0.0356 434:0.0186 435:0.0295 436:-0.0383 437:0.0084 438:-0.0176 439:0.1703 440:-0.032 441:0.0356 442:0.044 443:0.0257 444:0.0416 445:-0.0333 446:-0.0185 447:-0.012 448:0.1917 449:-0.0182 450:0.0279 451:0.0365 452:0.0238 453:0.0418 454:0.0199 455:-0.0235 456:0.0248 457:0.1684 458:-0.0516 459:0.0726 460:0.0197 461:0.014 462:0.0207 463:0.0156 464:0.0106 465:0.0184 466:0.1836 467:-0.0369 468:0.0488 469:0.0303 470:0.0235 471:0.0226 472:0.0192 473:-0.0186 474:0.0246 475:0.1681 476:-0.0625 477:0.0859 478:0.014 479:0.0095 480:0.0202 481:-0.0202 482:-0.0094 483:-0.0129 484:0.1836 485:-0.041 486:0.0845 487:0.0384 488:0.0199 489:0.0601 490:0.0116 491:0.008 492:0.042 493:0.184 494:-0.0358 495:0.0888 496:0.0405 497:0.0158 498:0.0549 499:0.0327 500:0.0104 501:0.0543 502:0.173 503:-0.0333 504:0.051 505:0.0344 506:0.0236 507:0.0458 508:0.024 509:-0.0166 510:0.0339 511:0.1769 512:-0.0315 513:0.0455 514:0.0322 515:0.0188 516:0.0279 517:-0.023 518:-0.0214 519:0.0259 520:0.171 521:-0.0483 522:0.0422 523:0.025 524:0.0213 525:0.025 526:-0.0172 527:-0.0191 528:0.027 529:0.1727 530:-0.0367 531:0.0356 532:0.0253 533:0.0172 534:0.0208 535:-0.0237 536:-0.0187 537:0.0216 538:0.1773 539:-0.0072 540:0.0383 541:0.0342 542:0.0133 543:0.0208 544:-0.0224 545:0.0094 546:0.0232 547:0.1787 548:-0.0171 549:0.0532 550:0.0427 551:0.0186 552:0.0554 553:-0.0224 554:-0.0171 555:0.0542 556:0.1949 557:-0.0205 558:0.0378 559:0.044 560:0.0208 561:0.0498 562:-0.0347 563:-0.0238 564:0.0564 565:0.1714 566:-0.046 567:0.0423 568:0.0308 569:0.0242 570:0.029 571:0.0118 572:-0.0209 573:0.03 574:0.1697 575:-0.0395 576:0.0337 577:0.0294 578:0.0184 579:0.0197 580:-0.0273 581:-0.0201 582:0.0218 583:0.1827 584:-0.0168 585:0.0209 586:0.0327 587:0.0178 588:0.0161 589:-0.0293 590:-0.022 591:0.0198 592:0.1913 593:-0.0041 594:0.0088 595:0.0348 596:0.0068 597:0.0181 598:-0.023 599:-0.011 600:0.0094 601:0.1772 602:-0.0191 603:0.0302 604:0.0562 605:0.0223 606:0.0331 607:-0.0278 608:-0.026 609:0.0306 610:0.0154 611:0.007 612:0.0039 613:0.0555 614:0.0232 615:0.0172 616:0.1411 617:0.1064 618:0.0206 619:0.0208 620:0.0116 621:0.0061 622:0.0755 623:0.0502 624:0.0372 625:0.2202 626:0.2941 627:0.0596 628:0.0157 629:0.0186 630:0.0077 631:0.0463 632:0.0417 633:0.032 634:0.093 635:0.229 636:0.0352 637:0.0118 638:0.0069 639:0.0028 640:0.053 641:0.0297 642:0.0153 643:0.123 644:0.0888 645:0.0121 646:0.0262 647:0.0172 648:0.0065 649:0.1357 650:0.0645 651:0.041 652:0.3793 653:0.2077 654:0.1088 655:0.0215 656:0.0227 657:0.0069 658:0.0696 659:0.0786 660:0.0425 661:0.0553 662:0.2472 663:0.1158 664:0.017 665:0.0145 666:0.0094 667:0.0388 668:0.0387 669:0.0262 670:0.0598 671:0.08 672:0.0229 673:0.0211 674:0.0173 675:0.0099 676:0.0456 677:0.0527 678:0.0393 679:0.1511 680:0.1429 681:0.0668 682:0.0276 683:0.0222 684:0.0128 685:0.145 686:0.0903 687:0.0616 688:0.373 689:0.3846 690:0.1158 
1 1:0.0445 2:0.0461 3:0.0494 4:0.0369 5:0.0264 6:0.0215 7:0.0243 8:0.035 9:0.118 10:0.0589 11:0.0472 12:0.0352 13:0.0264 14:0.0235 15:0.0324 16:0.0684 17:0.1164 18:0.0456 19:0.0353 20:0.0321 21:0.0492 22:0.036 23:0.048 24:0.0809 25:0.044 26:0.0269 27:0.0298 28:0.036 29:0.0649 30:0.0526 31:0.0451 32:0.0417 33:0.0731 34:0.0457 35:0.0441 36:0.0401 37:0.0368 38:0.0307 39:0.0269 40:0.0399 41:0.1899 42:0.0695 43:0.0416 44:0.0369 45:0.0342 46:0.0318 47:0.0336 48:0.0858 49:0.1687 50:0.058 51:0.0283 52:0.0419 53:0.0671 54:0.0533 55:0.0487 56:0.0784 57:0.0628 58:0.0291 59:0.0285 60:0.0485 61:0.0819 62:0.058 63:0.0513 64:0.0482 65:0.0808 66:0.0458 67:0.0248 68:0.033 69:0.0403 70:0.0349 71:0.0365 72:0.0449 73:0.1922 74:0.0833 75:0.0294 76:0.0291 77:0.0391 78:0.0368 79:0.0397 80:0.0767 81:0.1635 82:0.0763 83:0.0484 84:0.0565 85:0.0702 86:0.0401 87:0.0333 88:0.0614 89:0.0571 90:0.0482 91:0.0464 92:0.0634 93:0.0805 94:0.0391 95:0.0298 96:0.0316 97:0.0635 98:0.0427 99:0.0266 100:0.0249 101:0.0286 102:0.0286 103:0.0316 104:0.0434 105:0.1375 106:0.0713 107:0.0383 108:0.03 109:0.0302 110:0.0213 111:0.0289 112:0.0681 113:0.1106 114:0.084 115:0.0511 116:0.0442 117:0.0535 118:0.0281 119:0.0273 120:0.0446 121:0.0412 122:0.0449 123:0.0465 124:0.0508 125:0.063 126:0.0316 127:0.0217 128:0.0261 129:0.0001 130:0.0028 131:0.0182 132:0.0073 133:0 134:0.001 135:0.0039 136:0.0015 137:0 138:0 139:0.0003 140:0 141:0 142:0 143:0 144:0 145:0 146:0.0083 147:0.0513 148:0.1132 149:0 150:0.0074 151:0.0321 152:0.0188 153:0.0001 154:0.0031 155:0.002 156:0.0002 157:0 158:0.0001 159:0 160:0 161:0.0001 162:0.0116 163:0.024 164:0.0703 165:0.0006 166:0.0169 167:0.0139 168:0.0043 169:0.0019 170:0.0148 171:0.0043 172:0.0015 173:0.0042 174:0.0046 175:0 176:0 177:0.0003 178:0.0174 179:0.0114 180:0.0179 181:0.002 182:0.0236 183:0.0096 184:0 185:0.0074 186:0.0142 187:0.0001 188:0 189:0.0129 190:0.0013 191:0 192:0 193:0.0007 194:0.0103 195:0.0046 196:0.0085 197:0.003 198:0.0433 199:0.0055 200:0 201:0.0159 202:0.0607 203:0.0006 204:0 205:0.0498 206:0.0025 207:0 208:0 209:0.0005 210:0.0113 211:0.0037 212:0.0019 213:0.0011 214:0.0191 215:0 216:0 217:0.0148 218:0.0229 219:0 220:0 221:0.0282 222:0.0002 223:0 224:0 225:0.0004 226:0.0047 227:0.0029 228:0.0027 229:0 230:0.0054 231:0 232:0 233:0.0002 234:0.0024 235:0 236:0 237:0.0017 238:0.0003 239:0 240:0 241:0.0005 242:0.0019 243:0.0024 244:0.0051 245:0 246:0 247:0 248:0 249:0 250:0 251:0 252:0 253:0 254:0 255:0 256:0 257:0.0002 258:0.0029 259:0.0051 260:0.0222 261:0 262:0 263:0 264:0 265:0 266:0 267:0 268:0 269:0 270:0 271:0 272:0 273:0 274:0.0057 275:0.0102 276:0.0141 277:0 278:0 279:0 280:0 281:0 282:0 283:0 284:0 285:0 286:0 287:0 288:0 289:0.0001 290:0.002 291:0.0049 292:0.0033 293:0 294:0 295:0 296:0 297:0 298:0 299:0 300:0 301:0 302:0 303:0 304:0 305:0 306:0.0013 307:0.0025 308:0.0022 309:0 310:0 311:0 312:0 313:0 314:0 315:0 316:0 317:0 318:0 319:0 320:0 321:0 322:0.0008 323:0.0017 324:0.0003 325:0 326:0 327:0 328:0 329:0 330:0 331:0 332:0 333:0 334:0 335:0 336:0 337:0 338:0.0001 339:0.0029 340:0.0011 341:0 342:0 343:0 344:0 345:0 346:0 347:0 348:0 349:0 350:0 351:0 352:0 353:0 354:0.0004 355:0.004 356:0.0014 357:0 358:0 359:0 360:0 361:0 362:0 363:0 364:0 365:0 366:0 367:0 368:0 369:0 370:0.0004 371:0.0053 372:0.002 373:0 374:0 375:0 376:0 377:0 378:0 379:0 380:0 381:0 382:0 383:0 384:0 385:0.1772 386:-0.0278 387:0.0313 388:0.0372 389:0.0273 390:0.0259 391:0.0241 392:-0.0236 393:0.0222 394:0.1581 395:-0.0504 396:0.0466 397:0.0205 398:0.0168 399:0.0192 400:-0.0217 401:-0.0094 402:-0.0148 403:0.1679 404:-0.0438 405:0.063 406:0.0172 407:0.0106 408:0.0191 409:-0.0216 410:-0.012 411:0.0183 412:0.1665 413:-0.048 414:0.0607 415:0.019 416:0.0139 417:0.0191 418:-0.0212 419:-0.016 420:0.0103 421:0.1685 422:-0.0439 423:0.0569 424:0.0194 425:0.0098 426:0.0255 427:-0.0238 428:-0.0048 429:0.0209 430:0.1455 431:-0.0662 432:0.0599 433:0.0281 434:0.0258 435:0.0289 436:-0.0242 437:0.0138 438:0.0234 439:0.1638 440:-0.0456 441:0.0478 442:0.029 443:0.0298 444:0.0297 445:0.0246 446:0.0209 447:0.0155 448:0.1677 449:-0.0512 450:0.0714 451:0.0149 452:0.0102 453:0.0198 454:-0.0078 455:-0.0089 456:0.0187 457:0.1573 458:-0.0601 459:0.0688 460:0.0182 461:0.0187 462:0.023 463:-0.016 464:-0.02 465:0.0239 466:0.1646 467:-0.0419 468:0.0511 469:0.0293 470:0.0214 471:0.028 472:-0.024 473:-0.0127 474:0.0155 475:0.16 476:-0.0555 477:0.0569 478:0.0254 479:0.0207 480:0.022 481:-0.0282 482:-0.0147 483:0.0231 484:0.1782 485:-0.032 486:0.044 487:0.0323 488:0.0275 489:0.0341 490:0.0231 491:-0.0247 492:0.0302 493:0.1723 494:-0.0458 495:0.0547 496:0.0324 497:0.0234 498:0.0271 499:-0.0058 500:-0.0219 501:0.0255 502:0.1506 503:-0.0558 504:0.0664 505:0.0433 506:0.0321 507:0.0364 508:0.0382 509:0.0153 510:-0.0233 511:0.202 512:-0.0082 513:0.0149 514:0.0431 515:0.0182 516:0.0273 517:-0.028 518:-0.023 519:0.0317 520:0.1609 521:-0.0519 522:0.0606 523:0.0328 524:0.0327 525:0.0347 526:0.0312 527:0.0061 528:-0.0145 529:0.1906 530:-0.0226 531:0.0396 532:0.0441 533:0.024 534:0.0374 535:0.0163 536:-0.0194 537:0.0329 538:0.1896 539:-0.02 540:0.0366 541:0.0533 542:0.0317 543:0.0337 544:-0.0361 545:-0.031 546:0.0305 547:0.1526 548:-0.0406 549:0.0553 550:0.0574 551:0.0388 552:0.0352 553:0.0431 554:-0.0096 555:0.0127 556:0.1689 557:-0.0422 558:0.0551 559:0.0427 560:0.0318 561:0.0318 562:0.0345 563:-0.0148 564:0.0237 565:0.1608 566:-0.056 567:0.057 568:0.0178 569:0.0165 570:0.0202 571:-0.0212 572:-0.0182 573:0.021 574:0.1581 575:-0.0507 576:0.0662 577:0.0332 578:0.0238 579:0.0253 580:0.0193 581:-0.0166 582:0.0161 583:0.2364 584:-0.0013 585:0.0152 586:0.0289 587:0.007 588:0.0151 589:-0.031 590:-0.011 591:0.0199 592:0.2534 593:-0.0003 594:0.0111 595:0.0156 596:0.002 597:0.0102 598:-0.0201 599:0.0021 600:0.0097 601:0.237 602:-0.0006 603:0.0149 604:0.0203 605:0.0034 606:0.0075 607:-0.021 608:-0.0053 609:0.0061 610:0.0071 611:0.0145 612:0.0014 613:0.0247 614:0.0965 615:0.0146 616:0.0885 617:0.4292 618:0.0536 619:0.0048 620:0.0011 621:0.0002 622:0.0151 623:0.0059 624:0.0024 625:0.0533 626:0.0266 627:0.0058 628:0.0062 629:0.0058 630:0.0011 631:0.022 632:0.0115 633:0.0048 634:0.0616 635:0.0809 636:0.0126 637:0.0109 638:0.0073 639:0.0044 640:0.0442 641:0.0584 642:0.0152 643:0.2121 644:0.1695 645:0.0303 646:0.0118 647:0.0065 648:0.0026 649:0.0483 650:0.0388 651:0.0236 652:0.2025 653:0.2701 654:0.092 655:0.0141 656:0.0208 657:0.0049 658:0.0919 659:0.0779 660:0.0325 661:0.2589 662:0.3053 663:0.161 664:0.0056 665:0.004 666:0.0008 667:0.0348 668:0.0144 669:0.0056 670:0.1181 671:0.0514 672:0.0373 673:0.0242 674:0.018 675:0.0065 676:0.0784 677:0.0912 678:0.0283 679:0.322 680:0.3622 681:0.0761 682:0.024 683:0.015 684:0.0074 685:0.0789 686:0.0743 687:0.0308 688:0.2537 689:0.1114 690:0.0559 
1 1:0.0628 2:0.0449 3:0.037 4:0.0313 5:0.0377 6:0.0214 7:0.023 8:0.0348 9:0.1331 10:0.0588 11:0.0306 12:0.0243 13:0.0317 14:0.0295 15:0.0367 16:0.0747 17:0.1107 18:0.0448 19:0.0227 20:0.0295 21:0.0545 22:0.0466 23:0.0489 24:0.0789 25:0.0408 26:0.0236 27:0.0211 28:0.037 29:0.0729 30:0.0567 31:0.0446 32:0.0434 33:0.0861 34:0.0552 35:0.0379 36:0.0377 37:0.0477 38:0.0266 39:0.0232 40:0.0411 41:0.1996 42:0.0766 43:0.0301 44:0.0362 45:0.0448 46:0.028 47:0.0236 48:0.0834 49:0.1685 50:0.0604 51:0.022 52:0.0448 53:0.0757 54:0.0597 55:0.048 56:0.0826 57:0.0571 58:0.0297 59:0.0233 60:0.0559 61:0.0956 62:0.0737 63:0.0484 64:0.0489 65:0.083 66:0.0481 67:0.0243 68:0.0318 69:0.0377 70:0.0347 71:0.0366 72:0.0483 73:0.1965 74:0.0936 75:0.0307 76:0.0295 77:0.0384 78:0.031 79:0.0303 80:0.0758 81:0.1687 82:0.0837 83:0.0464 84:0.0541 85:0.0716 86:0.0431 87:0.0214 88:0.0617 89:0.0638 90:0.0427 91:0.0405 92:0.0613 93:0.0896 94:0.0588 95:0.0239 96:0.0373 97:0.0571 98:0.0378 99:0.0215 100:0.0187 101:0.0263 102:0.0246 103:0.0365 104:0.0547 105:0.1222 106:0.0697 107:0.0331 108:0.0216 109:0.0251 110:0.0216 111:0.0366 112:0.0735 113:0.11 114:0.088 115:0.0467 116:0.0414 117:0.0433 118:0.0222 119:0.0251 120:0.0542 121:0.0443 122:0.0477 123:0.0429 124:0.0548 125:0.0648 126:0.0361 127:0.021 128:0.0267 129:0.0001 130:0 131:0.0003 132:0.0015 133:0 134:0 135:0 136:0 137:0 138:0 139:0 140:0 141:0 142:0 143:0 144:0 145:0 146:0.0014 147:0.0168 148:0.0068 149:0.0002 150:0.0101 151:0.0161 152:0.0005 153:0 154:0.0055 155:0.0004 156:0 157:0.0001 158:0.0001 159:0 160:0 161:0 162:0.0136 163:0.0577 164:0.0095 165:0.0025 166:0.0958 167:0.0313 168:0.0019 169:0.0112 170:0.0205 171:0.0014 172:0.0011 173:0.007 174:0.0005 175:0 176:0 177:0.0005 178:0.0208 179:0.0201 180:0.0041 181:0.0056 182:0.0337 183:0.0041 184:0.0001 185:0.0057 186:0.0042 187:0 188:0 189:0.0054 190:0.0005 191:0 192:0 193:0.0025 194:0.04 195:0.0075 196:0.0023 197:0.0176 198:0.0273 199:0.0025 200:0 201:0.0236 202:0.054 203:0.0002 204:0 205:0.0486 206:0.0029 207:0 208:0 209:0.0043 210:0.0315 211:0.0032 212:0.0007 213:0.0143 214:0.012 215:0 216:0 217:0.0155 218:0.0283 219:0 220:0 221:0.055 222:0.0004 223:0 224:0 225:0.0027 226:0.023 227:0.0057 228:0.0002 229:0.0057 230:0.002 231:0 232:0 233:0.0034 234:0.0003 235:0 236:0 237:0.0011 238:0 239:0 240:0 241:0.0012 242:0.0234 243:0.0098 244:0.0009 245:0.0022 246:0.0009 247:0 248:0 249:0.0004 250:0 251:0 252:0 253:0 254:0 255:0 256:0 257:0.0001 258:0.0294 259:0.0265 260:0.0044 261:0.0007 262:0.0025 263:0.0005 264:0 265:0 266:0 267:0 268:0 269:0 270:0 271:0 272:0 273:0 274:0.0013 275:0.0134 276:0.0204 277:0 278:0.0009 279:0.001 280:0 281:0 282:0 283:0 284:0 285:0 286:0 287:0 288:0 289:0.0002 290:0 291:0 292:0.0009 293:0 294:0 295:0 296:0 297:0 298:0 299:0 300:0 301:0 302:0 303:0 304:0 305:0 306:0 307:0 308:0.0007 309:0 310:0 311:0 312:0 313:0 314:0 315:0 316:0 317:0 318:0 319:0 320:0 321:0 322:0 323:0 324:0.0003 325:0 326:0 327:0 328:0 329:0 330:0 331:0 332:0 333:0 334:0 335:0 336:0 337:0 338:0 339:0 340:0.0001 341:0 342:0 343:0 344:0 345:0 346:0 347:0 348:0 349:0 350:0 351:0 352:0 353:0 354:0 355:0 356:0.0001 357:0 358:0 359:0 360:0 361:0 362:0 363:0 364:0 365:0 366:0 367:0 368:0 369:0 370:0 371:0 372:0.0007 373:0 374:0 375:0 376:0 377:0 378:0 379:0 380:0 381:0 382:0 383:0 384:0 385:0.1614 386:-0.0704 387:0.0674 388:0.0434 389:0.0184 390:0.0201 391:-0.0449 392:-0.0155 393:0.0202 394:0.1486 395:-0.0809 396:0.0907 397:0.0497 398:0.0257 399:0.0273 400:0.0214 401:-0.0132 402:0.021 403:0.1714 404:-0.0314 405:0.0436 406:0.0506 407:0.0233 408:0.0321 409:-0.0334 410:-0.0266 411:0.0344 412:0.1736 413:-0.0363 414:0.0331 415:0.0366 416:0.0314 417:0.0294 418:-0.0403 419:-0.0313 420:0.0302 421:0.1347 422:-0.0811 423:0.0717 424:0.0376 425:0.0173 426:0.0207 427:-0.0366 428:-0.011 429:0.0191 430:0.1376 431:-0.074 432:0.0714 433:0.0479 434:0.0226 435:0.026 436:-0.0338 437:-0.0139 438:0.0182 439:0.123 440:-0.0585 441:0.057 442:0.0586 443:0.032 444:0.0372 445:0.0534 446:-0.0103 447:0.0093 448:0.2191 449:-0.0092 450:-0.0014 451:0.0377 452:0.0129 453:0.0206 454:-0.0242 455:-0.0218 456:0.0298 457:0.1897 458:-0.0248 459:0.0172 460:0.0352 461:0.0274 462:0.029 463:-0.0271 464:-0.0325 465:0.0343 466:0.1389 467:-0.0586 468:0.0503 469:0.0531 470:0.0337 471:0.0385 472:-0.0212 473:0.0087 474:-0.0191 475:0.1288 476:-0.0755 477:0.0678 478:0.0464 479:0.0227 480:0.0275 481:-0.0284 482:-0.0155 483:0.0215 484:0.1192 485:-0.077 486:0.0723 487:0.0421 488:0.0201 489:0.0218 490:-0.0224 491:0.0183 492:-0.0122 493:0.1716 494:-0.0488 495:0.0617 496:0.0424 497:0.035 498:0.0317 499:-0.0236 500:0.0209 501:0.0098 502:0.1784 503:-0.0369 504:0.0327 505:0.0517 506:0.038 507:0.0446 508:-0.0363 509:-0.0348 510:0.0407 511:0.1581 512:-0.033 513:0.0251 514:0.0357 515:0.024 516:0.0248 517:-0.0221 518:-0.0274 519:0.0276 520:0.1708 521:-0.0506 522:0.0647 523:0.0429 524:0.0339 525:0.0312 526:-0.0371 527:-0.0256 528:0.0288 529:0.2045 530:-0.0206 531:0.0437 532:0.04 533:0.0269 534:0.0232 535:-0.0375 536:-0.0338 537:0.028 538:0.1814 539:-0.0362 540:0.0532 541:0.0516 542:0.0328 543:0.03 544:-0.0458 545:-0.0295 546:0.0243 547:0.1459 548:-0.0805 549:0.0854 550:0.0392 551:0.0209 552:0.0238 553:-0.0337 554:-0.0164 555:0.015 556:0.1739 557:-0.0529 558:0.0458 559:0.0481 560:0.0332 561:0.0445 562:-0.0399 563:-0.0197 564:0.0178 565:0.2048 566:-0.0139 567:0.0416 568:0.0313 569:0.0137 570:0.0212 571:-0.0282 572:-0.0198 573:0.0262 574:0.2042 575:-0.0088 576:0.0402 577:0.0368 578:0.0065 579:0.0186 580:-0.0241 581:-0.0068 582:0.0234 583:0.1971 584:-0.0119 585:0.0456 586:0.0302 587:0.0091 588:0.0217 589:-0.021 590:-0.0149 591:0.0252 592:0.1443 593:-0.0592 594:0.0615 595:0.054 596:0.0316 597:0.0336 598:-0.0366 599:-0.0234 600:0.0273 601:0.1559 602:-0.0809 603:0.0819 604:0.0388 605:0.0214 606:0.0243 607:-0.038 608:-0.0164 609:0.0193 610:0.0052 611:0.0051 612:0.0016 613:0.0311 614:0.0333 615:0.0078 616:0.1284 617:0.2608 618:0.0403 619:0.0319 620:0.0093 621:0.0065 622:0.1171 623:0.0454 624:0.0368 625:0.2161 626:0.1806 627:0.2009 628:0.0119 629:0.004 630:0.0013 631:0.0289 632:0.0292 633:0.0053 634:0.0861 635:0.166 636:0.0311 637:0.0054 638:0.0041 639:0.0014 640:0.0312 641:0.0266 642:0.0051 643:0.1901 644:0.1382 645:0.0328 646:0.0159 647:0.0104 648:0.0033 649:0.084 650:0.0685 651:0.0189 652:0.3422 653:0.3862 654:0.1015 655:0.0212 656:0.0102 657:0.0064 658:0.0774 659:0.0475 660:0.0223 661:0.2809 662:0.2351 663:0.1071 664:0.024 665:0.0186 666:0.0095 667:0.0548 668:0.046 669:0.0271 670:0.215 671:0.2453 672:0.0648 673:0.0204 674:0.014 675:0.0084 676:0.0498 677:0.0542 678:0.0324 679:0.1208 680:0.1312 681:0.0543 682:0.0056 683:0.0066 684:0.0021 685:0.0266 686:0.0376 687:0.0109 688:0.1152 689:0.2312 690:0.0727 
1 1:0.0584 2:0.0538 3:0.0414 4:0.0375 5:0.0486 6:0.0284 7:0.0212 8:0.0363 9:0.1084 10:0.0658 11:0.0367 12:0.0309 13:0.0481 14:0.0375 15:0.036 16:0.0695 17:0.1192 18:0.0433 19:0.0244 20:0.0232 21:0.0471 22:0.0496 23:0.0469 24:0.0884 25:0.0557 26:0.0236 27:0.021 28:0.0354 29:0.0646 30:0.0567 31:0.0448 32:0.0504 33:0.0767 34:0.0504 35:0.0391 36:0.0433 37:0.055 38:0.0411 39:0.0301 40:0.0477 41:0.1719 42:0.0774 43:0.0452 44:0.0496 45:0.0596 46:0.0414 47:0.0362 48:0.0796 49:0.1826 50:0.0717 51:0.0259 52:0.0393 53:0.0645 54:0.0603 55:0.0488 56:0.085 57:0.0641 58:0.03 59:0.0268 60:0.06 61:0.0924 62:0.0699 63:0.0529 64:0.0487 65:0.068 66:0.0435 67:0.0361 68:0.0439 69:0.0501 70:0.0447 71:0.0444 72:0.0616 73:0.164 74:0.0776 75:0.0396 76:0.0436 77:0.0524 78:0.0466 79:0.0464 80:0.0799 81:0.1878 82:0.0851 83:0.042 84:0.0575 85:0.067 86:0.0401 87:0.0259 88:0.0787 89:0.0612 90:0.0513 91:0.0439 92:0.0728 93:0.0982 94:0.0513 95:0.0284 96:0.0337 97:0.0507 98:0.0397 99:0.0379 100:0.0325 101:0.0347 102:0.0367 103:0.0482 104:0.0469 105:0.109 106:0.0671 107:0.0403 108:0.0349 109:0.0331 110:0.0321 111:0.0505 112:0.0687 113:0.1101 114:0.08 115:0.0491 116:0.0422 117:0.0441 118:0.0312 119:0.0298 120:0.049 121:0.0449 122:0.0518 123:0.0423 124:0.0512 125:0.0668 126:0.0308 127:0.018 128:0.0221 129:0 130:0 131:0.0001 132:0 133:0 134:0 135:0 136:0 137:0 138:0 139:0 140:0 141:0 142:0 143:0 144:0 145:0 146:0.0002 147:0.0034 148:0.007 149:0 150:0.0024 151:0.0097 152:0.0026 153:0 154:0.0003 155:0.0005 156:0 157:0 158:0 159:0 160:0 161:0.0001 162:0.0088 163:0.0868 164:0.0685 165:0.002 166:0.0541 167:0.0715 168:0.0067 169:0.0029 170:0.0148 171:0.0037 172:0.0013 173:0.0038 174:0.0022 175:0.0039 176:0.0032 177:0.0001 178:0.0223 179:0.04 180:0.018 181:0.0022 182:0.0552 183:0.0282 184:0.0021 185:0.0062 186:0.0316 187:0.0009 188:0 189:0.014 190:0.0055 191:0 192:0 193:0.0008 194:0.0249 195:0.0213 196:0.0047 197:0.0044 198:0.0438 199:0.0119 200:0 201:0.0107 202:0.0474 203:0.0007 204:0 205:0.0348 206:0.0134 207:0 208:0 209:0.0008 210:0.0219 211:0.0177 212:0.0037 213:0.0035 214:0.0083 215:0.0007 216:0 217:0.0059 218:0.0336 219:0 220:0 221:0.0166 222:0.0069 223:0 224:0 225:0.0007 226:0.0113 227:0.0116 228:0.003 229:0.001 230:0.0012 231:0.0001 232:0 233:0.0003 234:0 235:0 236:0 237:0 238:0 239:0 240:0 241:0.0002 242:0.0069 243:0.0091 244:0.0037 245:0.0003 246:0.0001 247:0 248:0 249:0 250:0 251:0 252:0 253:0 254:0 255:0 256:0 257:0 258:0.0024 259:0.0072 260:0.0106 261:0 262:0.0002 263:0 264:0 265:0 266:0 267:0 268:0 269:0 270:0 271:0 272:0 273:0 274:0.0004 275:0.0012 276:0.0033 277:0 278:0 279:0 280:0 281:0 282:0 283:0 284:0 285:0 286:0 287:0 288:0 289:0 290:0 291:0 292:0.0002 293:0 294:0 295:0 296:0 297:0 298:0 299:0 300:0 301:0 302:0 303:0 304:0 305:0 306:0 307:0 308:0 309:0 310:0 311:0 312:0 313:0 314:0 315:0 316:0 317:0 318:0 319:0 320:0 321:0 322:0 323:0 324:0 325:0 326:0 327:0 328:0 329:0 330:0 331:0 332:0 333:0 334:0 335:0 336:0 337:0 338:0 339:0 340:0 341:0 342:0 343:0 344:0 345:0 346:0 347:0 348:0 349:0 350:0 351:0 352:0 353:0 354:0 355:0 356:0 357:0 358:0 359:0 360:0 361:0 362:0 363:0 364:0 365:0 366:0 367:0 368:0 369:0 370:0 371:0 372:0 373:0 374:0 375:0 376:0 377:0 378:0 379:0 380:0 381:0 382:0 383:0 384:0 385:0.1556 386:-0.0758 387:0.0706 388:0.0349 389:0.0222 390:0.0265 391:-0.0325 392:-0.0196 393:0.0245 394:0.1606 395:-0.0587 396:0.0729 397:0.0384 398:0.0286 399:0.0275 400:-0.0314 401:-0.0182 402:0.0244 403:0.1617 404:-0.0664 405:0.0786 406:0.0348 407:0.0261 408:0.0296 409:-0.0244 410:-0.0172 411:0.0259 412:0.1623 413:-0.0732 414:0.0763 415:0.0407 416:0.0206 417:0.0252 418:-0.0352 419:-0.0204 420:0.0243 421:0.1498 422:-0.0707 423:0.0736 424:0.047 425:0.0254 426:0.0313 427:-0.0407 428:0.0228 429:-0.0214 430:0.1507 431:-0.0598 432:0.0581 433:0.041 434:0.0329 435:0.0349 436:-0.0316 437:0.0154 438:0.017 439:0.1862 440:-0.0326 441:0.037 442:0.0347 443:0.0281 444:0.0326 445:-0.0322 446:-0.0309 447:0.035 448:0.1759 449:-0.0379 450:0.0417 451:0.0449 452:0.0306 453:0.0365 454:-0.0343 455:-0.0301 456:0.0329 457:0.1557 458:-0.0648 459:0.0773 460:0.0528 461:0.029 462:0.0444 463:0.0277 464:0.0171 465:0.0397 466:0.1613 467:-0.0747 468:0.0808 469:0.0374 470:0.0218 471:0.0282 472:-0.0361 473:-0.0191 474:0.0245 475:0.1569 476:-0.0734 477:0.0738 478:0.0326 479:0.0189 480:0.023 481:-0.0365 482:-0.0165 483:0.0201 484:0.1665 485:-0.0684 486:0.0725 487:0.034 488:0.0269 489:0.0321 490:-0.029 491:0.0124 492:0.0055 493:0.1743 494:-0.045 495:0.0534 496:0.0446 497:0.0316 498:0.0388 499:-0.025 500:-0.0244 501:0.0236 502:0.1465 503:-0.0532 504:0.0584 505:0.0536 506:0.0279 507:0.0329 508:0.0182 509:0.0089 510:0.014 511:0.1151 512:-0.067 513:0.0654 514:0.0426 515:0.0289 516:0.0303 517:0.0065 518:0.0243 519:-0.0163 520:0.1536 521:-0.0726 522:0.0742 523:0.0403 524:0.0207 525:0.0247 526:-0.0373 527:-0.013 528:0.0213 529:0.1691 530:-0.0557 531:0.0594 532:0.0373 533:0.0262 534:0.0304 535:-0.0304 536:-0.016 537:0.0209 538:0.1927 539:-0.0217 540:0.0379 541:0.0359 542:0.0229 543:0.0259 544:-0.0316 545:-0.0281 546:0.0297 547:0.2101 548:-0.011 549:0.0304 550:0.0299 551:0.0075 552:0.0121 553:-0.0216 554:-0.0081 555:0.0133 556:0.2018 557:-0.0146 558:0.0341 559:0.0332 560:0.0131 561:0.0357 562:-0.0312 563:-0.0167 564:0.0422 565:0.0913 566:-0.0508 567:0.0504 568:0.0403 569:0.0363 570:0.036 571:0.0389 572:-0.0073 573:0.0185 574:0.1479 575:-0.0635 576:0.0653 577:0.0453 578:0.0243 579:0.0289 580:-0.036 581:-0.0172 582:0.0241 583:0.2001 584:-0.0198 585:0.0396 586:0.0364 587:0.0177 588:0.0229 589:-0.0285 590:-0.0191 591:0.0271 592:0.2146 593:-0.0084 594:0.0309 595:0.0269 596:0.0065 597:0.0144 598:-0.0267 599:-0.0096 600:0.022 601:0.1857 602:-0.0301 603:0.0441 604:0.0375 605:0.023 606:0.0246 607:-0.0271 608:-0.0192 609:0.0286 610:0.0104 611:0.0091 612:0.0018 613:0.0472 614:0.0266 615:0.0119 616:0.2004 617:0.1401 618:0.0961 619:0.0111 620:0.0159 621:0.0032 622:0.0355 623:0.08 624:0.0195 625:0.1993 626:0.2351 627:0.1145 628:0.0055 629:0.0047 630:0.0012 631:0.0326 632:0.0251 633:0.0065 634:0.1299 635:0.1701 636:0.0568 637:0.0067 638:0.0055 639:0.0021 640:0.035 641:0.031 642:0.0145 643:0.1426 644:0.1612 645:0.0434 646:0.0144 647:0.0149 648:0.0048 649:0.0703 650:0.0763 651:0.0307 652:0.3613 653:0.4234 654:0.0924 655:0.0106 656:0.0068 657:0.0025 658:0.0634 659:0.0436 660:0.0189 661:0.3142 662:0.1816 663:0.0871 664:0.0035 665:0.0029 666:0.0009 667:0.0235 668:0.014 669:0.0057 670:0.1608 671:0.0999 672:0.0255 673:0.025 674:0.0183 675:0.0073 676:0.064 677:0.0791 678:0.0274 679:0.2635 680:0.2365 681:0.098 682:0.0249 683:0.0096 684:0.0073 685:0.0556 686:0.0345 687:0.0234 688:0.1872 689:0.0728 690:0.0571 
1 1:0.0457 2:0.0342 3:0.0359 4:0.0458 5:0.0652 6:0.0466 7:0.0384 8:0.045 9:0.1151 10:0.0702 11:0.0409 12:0.0428 13:0.0514 14:0.0344 15:0.0416 16:0.0686 17:0.0926 18:0.0592 19:0.0385 20:0.0456 21:0.0575 22:0.0445 23:0.045 24:0.0568 25:0.0431 26:0.0391 27:0.0362 28:0.0409 29:0.0506 30:0.0478 31:0.037 32:0.0423 33:0.0561 34:0.0505 35:0.0528 36:0.0791 37:0.0931 38:0.0578 39:0.0367 40:0.0367 41:0.1849 42:0.0811 43:0.0456 44:0.0697 45:0.0788 46:0.0441 47:0.0346 48:0.0744 49:0.1348 50:0.074 51:0.0406 52:0.0631 53:0.0969 54:0.073 55:0.0489 56:0.0538 57:0.0645 58:0.0587 59:0.0438 60:0.0491 61:0.0666 62:0.0518 63:0.0517 64:0.0465 65:0.059 66:0.0414 67:0.0369 68:0.06 69:0.0903 70:0.0723 71:0.0535 72:0.0499 73:0.1847 74:0.0731 75:0.0378 76:0.0473 77:0.0734 78:0.0671 79:0.0479 80:0.0827 81:0.1392 82:0.0581 83:0.0484 84:0.0647 85:0.0865 86:0.0709 87:0.0394 88:0.0643 89:0.0638 90:0.0477 91:0.044 92:0.0518 93:0.063 94:0.0565 95:0.0507 96:0.046 97:0.0483 98:0.039 99:0.0284 100:0.0358 101:0.062 102:0.0552 103:0.0438 104:0.0426 105:0.1083 106:0.063 107:0.0416 108:0.0389 109:0.0524 110:0.0502 111:0.0461 112:0.0679 113:0.0883 114:0.0662 115:0.054 116:0.0418 117:0.0478 118:0.045 119:0.0374 120:0.0532 121:0.045 122:0.0428 123:0.0412 124:0.0518 125:0.0557 126:0.0348 127:0.0365 128:0.0336 129:0 130:0 131:0.0002 132:0.0002 133:0 134:0.0002 135:0.0006 136:0 137:0 138:0 139:0 140:0 141:0.0008 142:0 143:0 144:0 145:0 146:0.0071 147:0.019 148:0.0027 149:0.0017 150:0.0732 151:0.0509 152:0.0008 153:0.0065 154:0.0082 155:0.0024 156:0 157:0.014 158:0.0021 159:0 160:0 161:0.0003 162:0.0041 163:0.015 164:0.0033 165:0.0017 166:0.0407 167:0.0123 168:0.0002 169:0.0082 170:0.0283 171:0.0005 172:0 173:0.0167 174:0.0044 175:0 176:0 177:0 178:0.0024 179:0.0026 180:0.0002 181:0.0023 182:0.2027 183:0.0454 184:0 185:0.0161 186:0.1611 187:0.0026 188:0 189:0.0345 190:0.0173 191:0 192:0 193:0.0003 194:0.0038 195:0.0032 196:0 197:0.0018 198:0.1129 199:0.0289 200:0 201:0.0053 202:0.0094 203:0 204:0 205:0.0128 206:0.0003 207:0 208:0 209:0 210:0 211:0 212:0 213:0.0003 214:0 215:0 216:0 217:0.0018 218:0 219:0 220:0 221:0.0043 222:0 223:0 224:0 225:0 226:0 227:0 228:0 229:0 230:0 231:0 232:0 233:0 234:0 235:0 236:0 237:0.0015 238:0 239:0 240:0 241:0 242:0 243:0 244:0 245:0 246:0 247:0 248:0 249:0 250:0 251:0 252:0 253:0 254:0 255:0 256:0 257:0 258:0 259:0 260:0 261:0 262:0 263:0 264:0 265:0 266:0 267:0 268:0 269:0 270:0 271:0 272:0 273:0 274:0 275:0 276:0 277:0 278:0 279:0 280:0 281:0 282:0 283:0 284:0 285:0 286:0 287:0 288:0 289:0 290:0 291:0 292:0 293:0 294:0 295:0 296:0 297:0 298:0 299:0 300:0 301:0 302:0 303:0 304:0 305:0 306:0 307:0 308:0 309:0 310:0 311:0 312:0 313:0 314:0 315:0 316:0 317:0 318:0 319:0 320:0 321:0 322:0 323:0 324:0 325:0 326:0 327:0 328:0 329:0 330:0 331:0 332:0 333:0 334:0 335:0 336:0 337:0 338:0 339:0 340:0 341:0 342:0 343:0 344:0 345:0 346:0 347:0 348:0 349:0 350:0 351:0 352:0 353:0 354:0 355:0 356:0 357:0 358:0 359:0 360:0 361:0 362:0 363:0 364:0 365:0 366:0 367:0 368:0 369:0 370:0 371:0 372:0 373:0 374:0 375:0 376:0 377:0 378:0 379:0 380:0 381:0 382:0 383:0 384:0 385:0.1865 386:-0.0249 387:0.0585 388:0.0306 389:0.0159 390:0.0248 391:-0.0332 392:0.0111 393:0.0279 394:0.1823 395:-0.0402 396:0.0693 397:0.0349 398:0.0136 399:0.0274 400:-0.0387 401:-0.0166 402:0.0302 403:0.1817 404:-0.0433 405:0.07 406:0.027 407:0.012 408:0.0246 409:-0.0316 410:-0.015 411:0.028 412:0.1716 413:-0.0484 414:0.0841 415:0.0351 416:0.0159 417:0.0276 418:-0.0386 419:-0.016 420:0.027 421:0.1788 422:-0.0268 423:0.0806 424:0.0292 425:0.0164 426:0.0308 427:-0.034 428:0.0067 429:0.0267 430:0.1813 431:-0.0388 432:0.0586 433:0.0395 434:0.0146 435:0.0258 436:-0.045 437:-0.0184 438:0.0303 439:0.1788 440:-0.044 441:0.0679 442:0.0379 443:0.017 444:0.028 445:-0.0406 446:-0.0198 447:0.0287 448:0.1628 449:-0.0416 450:0.0703 451:0.0479 452:0.0173 453:0.0283 454:-0.0494 455:-0.0137 456:0.0279 457:0.1728 458:-0.0459 459:0.0813 460:0.0386 461:0.0182 462:0.0286 463:-0.0405 464:-0.0147 465:0.0256 466:0.1664 467:-0.0159 468:0.0688 469:0.0441 470:0.0222 471:0.0302 472:-0.0407 473:-0.0209 474:0.0286 475:0.1665 476:-0.0329 477:0.0655 478:0.046 479:0.0232 480:0.0289 481:-0.0451 482:-0.0161 483:0.0279 484:0.1828 485:-0.0455 486:0.0653 487:0.0365 488:0.017 489:0.0262 490:-0.0427 491:-0.0206 492:0.03 493:0.1585 494:-0.0179 495:0.0753 496:0.0396 497:0.0223 498:0.0352 499:-0.0316 500:-0.0195 501:0.0252 502:0.1843 503:-0.0061 504:0.0541 505:0.0394 506:0.0119 507:0.0254 508:-0.0428 509:-0.014 510:0.0301 511:0.1872 512:0.004 513:0.051 514:0.0345 515:0.0062 516:0.0257 517:-0.0157 518:0.0024 519:0.0253 520:0.1703 521:-0.026 522:0.0612 523:0.0428 524:0.024 525:0.0251 526:-0.0458 527:-0.0187 528:0.0276 529:0.1785 530:-0.0216 531:0.0672 532:0.0374 533:0.022 534:0.0295 535:-0.0381 536:-0.008 537:0.0324 538:0.1876 539:-0.0017 540:0.0487 541:0.0256 542:0.0069 543:0.0202 544:-0.0285 545:-0.0067 546:0.0262 547:0.2078 548:-0.0021 549:0.0308 550:0.0259 551:0.0081 552:0.0139 553:-0.0342 554:-0.0153 555:0.0122 556:0.1662 557:0.0025 558:0.0587 559:0.0443 560:0.0144 561:0.0285 562:-0.0398 563:-0.0176 564:0.0238 565:0.17 566:0.0066 567:0.0569 568:0.0344 569:0.0089 570:0.0275 571:-0.0304 572:-0.0095 573:0.0299 574:0.1564 575:0.0019 576:0.0675 577:0.0448 578:0.0107 579:0.0254 580:-0.043 581:0.0111 582:0.0261 583:0.1377 584:-0.0052 585:0.0648 586:0.0552 587:0.0235 588:0.0271 589:-0.0393 590:-0.0251 591:0.0233 592:0.1413 593:-0.0034 594:0.0562 595:0.059 596:0.027 597:0.0323 598:0.0115 599:-0.0259 600:0.0232 601:0.1571 602:0.0057 603:0.0692 604:0.0323 605:0.007 606:0.0267 607:-0.0317 608:0.006 609:0.0281 610:0.0132 611:0.014 612:0.004 613:0.0532 614:0.0461 615:0.0342 616:0.1139 617:0.1787 618:0.0406 619:0.0123 620:0.0084 621:0.0033 622:0.0478 623:0.0371 624:0.0247 625:0.1426 626:0.0778 627:0.0419 628:0.0126 629:0.0085 630:0.0029 631:0.0507 632:0.032 633:0.0217 634:0.1921 635:0.0747 636:0.0632 637:0.0092 638:0.0122 639:0.0037 640:0.0527 641:0.0697 642:0.0258 643:0.0928 644:0.2091 645:0.0699 646:0.0111 647:0.0118 648:0.0038 649:0.0444 650:0.0453 651:0.0247 652:0.1332 653:0.1395 654:0.0829 655:0.0103 656:0.0123 657:0.0028 658:0.0443 659:0.0338 660:0.0187 661:0.1171 662:0.0814 663:0.036 664:0.0138 665:0.0126 666:0.0049 667:0.0521 668:0.065 669:0.0285 670:0.0921 671:0.1268 672:0.0384 673:0.0204 674:0.0054 675:0.0033 676:0.0512 677:0.0199 678:0.0159 679:0.7042 680:0.0659 681:0.0283 682:0.0212 683:0.0116 684:0.0058 685:0.0817 686:0.0434 687:0.024 688:0.3771 689:0.1722 690:0.0541 
1 1:0.0513 2:0.05 3:0.0443 4:0.0538 5:0.0516 6:0.0348 7:0.0272 8:0.0319 9:0.0838 10:0.0676 11:0.059 12:0.0508 13:0.0484 14:0.0369 15:0.0354 16:0.0542 17:0.102 18:0.0602 19:0.0433 20:0.0368 21:0.0465 22:0.0439 23:0.0357 24:0.0764 25:0.055 26:0.0354 27:0.0293 28:0.0434 29:0.0496 30:0.0419 31:0.0402 32:0.0555 33:0.0554 34:0.0547 35:0.05 36:0.058 37:0.0788 38:0.0646 39:0.0378 40:0.0328 41:0.1439 42:0.0771 43:0.0627 44:0.0716 45:0.0738 46:0.0559 47:0.035 48:0.0671 49:0.1804 50:0.0817 51:0.0359 52:0.0458 53:0.0686 54:0.0611 55:0.039 56:0.0871 57:0.07 58:0.0387 59:0.0413 60:0.0589 61:0.0829 62:0.0581 63:0.0398 64:0.0587 65:0.0603 66:0.0531 67:0.0378 68:0.0571 69:0.0779 70:0.0676 71:0.0431 72:0.036 73:0.1498 74:0.08 75:0.0334 76:0.05 77:0.0801 78:0.074 79:0.0535 80:0.067 81:0.1825 82:0.0791 83:0.0377 84:0.0605 85:0.0731 86:0.0456 87:0.0331 88:0.0839 89:0.0669 90:0.043 91:0.0431 92:0.0631 93:0.0888 94:0.0516 95:0.0305 96:0.0547 97:0.0493 98:0.046 99:0.0286 100:0.0381 101:0.0595 102:0.054 103:0.039 104:0.0427 105:0.1034 106:0.0662 107:0.0331 108:0.0339 109:0.0542 110:0.0534 111:0.0415 112:0.062 113:0.1169 114:0.0755 115:0.0427 116:0.0405 117:0.0463 118:0.0314 119:0.034 120:0.065 121:0.052 122:0.0476 123:0.0394 124:0.0467 125:0.0612 126:0.0367 127:0.0267 128:0.0398 129:0 130:0.0012 131:0.0032 132:0.0117 133:0 134:0.0003 135:0.003 136:0.003 137:0 138:0 139:0 140:0.0002 141:0 142:0 143:0 144:0 145:0 146:0.0032 147:0.0292 148:0.0541 149:0.0001 150:0.0428 151:0.1182 152:0.0282 153:0.0002 154:0.0139 155:0.0037 156:0.0032 157:0.0008 158:0.0012 159:0.0004 160:0.0004 161:0.0001 162:0.0045 163:0.0165 164:0.0197 165:0.001 166:0.0416 167:0.0384 168:0.0112 169:0.0028 170:0.038 171:0.0133 172:0.0062 173:0.0075 174:0.0373 175:0.0017 176:0.002 177:0.0001 178:0.0062 179:0.0076 180:0.0024 181:0.0006 182:0.0328 183:0.0322 184:0.0041 185:0.004 186:0.0455 187:0.0254 188:0 189:0.0214 190:0.0363 191:0.0052 192:0 193:0.0003 194:0.0037 195:0.0024 196:0.0003 197:0.0011 198:0.0131 199:0.0175 200:0.0063 201:0.0057 202:0.0224 203:0.0026 204:0 205:0.0338 206:0.0243 207:0 208:0 209:0 210:0.0029 211:0.0025 212:0.0007 213:0.0012 214:0.0034 215:0.0002 216:0 217:0.0023 218:0.0003 219:0 220:0 221:0.0069 222:0 223:0 224:0 225:0 226:0.0014 227:0.0013 228:0 229:0.0004 230:0.0003 231:0 232:0 233:0.0001 234:0 235:0 236:0 237:0 238:0 239:0 240:0 241:0 242:0.0024 243:0.0015 244:0.0001 245:0.0002 246:0.0003 247:0 248:0 249:0 250:0 251:0 252:0 253:0 254:0 255:0 256:0 257:0 258:0.0039 259:0.0033 260:0 261:0.0001 262:0.0006 263:0 264:0 265:0.0001 266:0 267:0 268:0 269:0 270:0 271:0 272:0 273:0 274:0.002 275:0.0134 276:0.003 277:0 278:0.0004 279:0.0042 280:0.0006 281:0 282:0 283:0 284:0 285:0 286:0 287:0 288:0 289:0 290:0.0001 291:0.0035 292:0.008 293:0 294:0 295:0 296:0 297:0 298:0 299:0 300:0 301:0 302:0 303:0 304:0 305:0 306:0 307:0.0013 308:0.0024 309:0 310:0 311:0 312:0 313:0 314:0 315:0 316:0 317:0 318:0 319:0 320:0 321:0 322:0 323:0.0001 324:0 325:0 326:0 327:0 328:0 329:0 330:0 331:0 332:0 333:0 334:0 335:0 336:0 337:0 338:0 339:0 340:0.0006 341:0 342:0 343:0 344:0 345:0 346:0 347:0 348:0 349:0 350:0 351:0 352:0 353:0 354:0 355:0.0001 356:0.0003 357:0 358:0 359:0 360:0 361:0 362:0 363:0 364:0 365:0 366:0 367:0 368:0 369:0 370:0.0001 371:0.0001 372:0.0015 373:0 374:0 375:0 376:0 377:0 378:0 379:0 380:0 381:0 382:0 383:0 384:0 385:0.1826 386:-0.0517 387:0.054 388:0.0367 389:0.0222 390:0.0291 391:-0.0363 392:-0.0245 393:0.0316 394:0.1533 395:-0.0633 396:0.0913 397:0.034 398:0.0214 399:0.0323 400:-0.0242 401:-0.0135 402:-0.0182 403:0.1385 404:-0.0726 405:0.0997 406:0.0327 407:0.0212 408:0.0324 409:-0.0264 410:-0.0075 411:-0.0159 412:0.1497 413:-0.0618 414:0.0904 415:0.0365 416:0.0193 417:0.0373 418:-0.0358 419:-0.0091 420:-0.0224 421:0.1009 422:-0.052 423:0.0544 424:0.0407 425:0.0267 426:0.0308 427:0.0352 428:-0.0148 429:0.0177 430:0.1826 431:-0.0512 432:0.0579 433:0.0332 434:0.0195 435:0.0285 436:-0.0316 437:-0.0223 438:0.0308 439:0.167 440:-0.0561 441:0.0806 442:0.0362 443:0.0202 444:0.0371 445:-0.0157 446:-0.0164 447:0.0185 448:0.1661 449:-0.0338 450:0.0509 451:0.0291 452:0.0297 453:0.0487 454:-0.0276 455:-0.0277 456:0.0281 457:0.1577 458:-0.0416 459:0.0906 460:0.033 461:0.021 462:0.0348 463:-0.0294 464:-0.0197 465:-0.0166 466:0.129 467:-0.0598 468:0.0709 469:0.0417 470:0.0257 471:0.0309 472:0.0248 473:-0.019 474:0.0184 475:0.1697 476:-0.052 477:0.0644 478:0.035 479:0.02 480:0.0267 481:-0.0286 482:-0.0221 483:0.0267 484:0.1859 485:-0.0244 486:0.0482 487:0.0352 488:0.0295 489:0.0319 490:-0.0338 491:-0.0277 492:0.0343 493:0.1908 494:-0.0038 495:0.0321 496:0.0285 497:0.0118 498:0.0387 499:-0.0213 500:-0.0132 501:0.0456 502:0.1865 503:-0.0159 504:0.0411 505:0.0272 506:0.0163 507:0.0444 508:-0.0166 509:-0.0158 510:0.0366 511:0.146 512:-0.0434 513:0.0777 514:0.0434 515:0.0246 516:0.0356 517:-0.0288 518:-0.0227 519:0.024 520:0.1821 521:-0.0242 522:0.0476 523:0.0392 524:0.0236 525:0.0308 526:-0.0233 527:-0.016 528:0.029 529:0.1947 530:0.0002 531:0.0306 532:0.0231 533:0.0053 534:0.0134 535:0.0099 536:-0.0063 537:0.0137 538:0.1943 539:0.0011 540:0.0387 541:0.0255 542:0.0083 543:0.0256 544:-0.0134 545:-0.0027 546:0.0323 547:0.1966 548:-0.0045 549:0.0376 550:0.0314 551:0.0142 552:0.0303 553:-0.0232 554:-0.0172 555:0.0353 556:0.1558 557:-0.0437 558:0.0636 559:0.0412 560:0.0204 561:0.0285 562:-0.0253 563:-0.0208 564:0.0249 565:0.2047 566:-0.033 567:0.0435 568:0.0283 569:0.0182 570:0.0199 571:-0.0308 572:0.0144 573:0.0215 574:0.2037 575:-0.0141 576:0.0346 577:0.0231 578:0.0172 579:0.0155 580:-0.017 581:-0.0144 582:0.0135 583:0.1958 584:-0.0281 585:0.0519 586:0.0222 587:0.0162 588:0.0165 589:-0.0234 590:0.0136 591:0.0204 592:0.1951 593:-0.0333 594:0.0514 595:0.0205 596:0.0153 597:0.0157 598:-0.0235 599:0.013 600:0.0194 601:0.1753 602:-0.0495 603:0.0637 604:0.0261 605:0.0168 606:0.0237 607:-0.027 608:-0.0188 609:0.0265 610:0.0166 611:0.0222 612:0.0055 613:0.0458 614:0.0976 615:0.0305 616:0.183 617:0.4553 618:0.1252 619:0.005 620:0.0135 621:0.0015 622:0.0124 623:0.0433 624:0.0059 625:0.0434 626:0.1622 627:0.0189 628:0.0096 629:0.0177 630:0.0036 631:0.0269 632:0.0832 633:0.0216 634:0.073 635:0.2595 636:0.0514 637:0.0196 638:0.0206 639:0.0096 640:0.0826 641:0.0626 642:0.028 643:0.2427 644:0.2957 645:0.1818 646:0.0218 647:0.0137 648:0.0072 649:0.0631 650:0.0768 651:0.0257 652:0.2659 653:0.2207 654:0.0828 655:0.018 656:0.0171 657:0.0053 658:0.0655 659:0.0774 660:0.0237 661:0.1191 662:0.2196 663:0.0479 664:0.0241 665:0.0214 666:0.0114 667:0.0644 668:0.0595 669:0.0393 670:0.2757 671:0.1893 672:0.0569 673:0.022 674:0.0128 675:0.0069 676:0.0541 677:0.0451 678:0.0259 679:0.0738 680:0.0844 681:0.0404 682:0.0152 683:0.0156 684:0.0068 685:0.0459 686:0.0448 687:0.0246 688:0.1148 689:0.2034 690:0.0648 
1 1:0.0515 2:0.0508 3:0.0401 4:0.045 5:0.0353 6:0.037 7:0.0269 8:0.0342 9:0.1221 10:0.0702 11:0.0338 12:0.0297 13:0.0341 14:0.0338 15:0.0394 16:0.0718 17:0.1092 18:0.0481 19:0.0252 20:0.0273 21:0.0478 22:0.0515 23:0.055 24:0.0811 25:0.0408 26:0.03 27:0.0242 28:0.0358 29:0.066 30:0.0546 31:0.0519 32:0.0472 33:0.0681 34:0.0487 35:0.0391 36:0.0475 37:0.0548 38:0.0519 39:0.039 40:0.0412 41:0.1851 42:0.0783 43:0.0356 44:0.0378 45:0.04 46:0.0406 47:0.0374 48:0.087 49:0.1646 50:0.0688 51:0.0275 52:0.0408 53:0.0725 54:0.07 55:0.0488 56:0.0711 57:0.0529 58:0.0437 59:0.0336 60:0.0455 61:0.0882 62:0.0725 63:0.0461 64:0.0407 65:0.0663 66:0.0362 67:0.0291 68:0.0416 69:0.0602 70:0.0591 71:0.0534 72:0.0481 73:0.1806 74:0.0861 75:0.0374 76:0.0369 77:0.0396 78:0.0531 79:0.0498 80:0.0745 81:0.1621 82:0.0729 83:0.0483 84:0.0609 85:0.0704 86:0.0511 87:0.0353 88:0.0679 89:0.0566 90:0.0422 91:0.0416 92:0.0554 93:0.0899 94:0.0687 95:0.0346 96:0.0349 97:0.0518 98:0.0375 99:0.0269 100:0.0346 101:0.0455 102:0.0437 103:0.0461 104:0.0473 105:0.1187 106:0.0667 107:0.0372 108:0.0278 109:0.0334 110:0.0429 111:0.0468 112:0.0722 113:0.1172 114:0.0771 115:0.0445 116:0.0401 117:0.0421 118:0.0393 119:0.0309 120:0.0541 121:0.0453 122:0.0399 123:0.0381 124:0.0512 125:0.0576 126:0.0438 127:0.0281 128:0.0337 129:0 130:0.0016 131:0.0137 132:0.0123 133:0 134:0.0007 135:0.0052 136:0.0024 137:0 138:0.0002 139:0 140:0 141:0 142:0 143:0 144:0 145:0.0001 146:0.0104 147:0.0702 148:0.037 149:0.0003 150:0.0358 151:0.1146 152:0.0258 153:0.0004 154:0.0083 155:0.0028 156:0.0036 157:0.001 158:0.0011 159:0.0007 160:0.0003 161:0.0003 162:0.0197 163:0.0388 164:0.0108 165:0.0011 166:0.0496 167:0.0257 168:0.0047 169:0.0053 170:0.0159 171:0.0087 172:0.0082 173:0.0068 174:0.007 175:0.0053 176:0.0043 177:0.0003 178:0.0109 179:0.0083 180:0.0034 181:0.0031 182:0.0214 183:0.0113 184:0.0015 185:0.0066 186:0.0203 187:0.0068 188:0 189:0.0195 190:0.0157 191:0.0015 192:0 193:0.0006 194:0.004 195:0.0041 196:0.0033 197:0.0036 198:0.0147 199:0.0508 200:0.0085 201:0.0112 202:0.0256 203:0.0038 204:0 205:0.0754 206:0.0144 207:0 208:0 209:0.0003 210:0.0031 211:0.0027 212:0.0019 213:0.0009 214:0.0028 215:0.0038 216:0.0006 217:0.0029 218:0.0004 219:0 220:0 221:0.0252 222:0 223:0 224:0 225:0.0001 226:0.0016 227:0.0009 228:0.0001 229:0.0003 230:0 231:0 232:0 233:0.0001 234:0 235:0 236:0 237:0 238:0 239:0 240:0 241:0 242:0.002 243:0.0004 244:0 245:0.0002 246:0 247:0 248:0 249:0 250:0 251:0 252:0 253:0 254:0 255:0 256:0 257:0 258:0.0022 259:0.0009 260:0 261:0 262:0 263:0 264:0 265:0 266:0 267:0 268:0 269:0 270:0 271:0 272:0 273:0.0001 274:0.0012 275:0.0058 276:0.0002 277:0 278:0 279:0 280:0 281:0 282:0 283:0 284:0 285:0 286:0 287:0 288:0 289:0 290:0.0007 291:0.0038 292:0.0049 293:0 294:0 295:0 296:0 297:0 298:0 299:0 300:0 301:0 302:0 303:0 304:0 305:0 306:0 307:0.0033 308:0.0022 309:0 310:0 311:0 312:0 313:0 314:0 315:0 316:0 317:0 318:0 319:0 320:0 321:0 322:0 323:0.0021 324:0.0003 325:0 326:0 327:0 328:0 329:0 330:0 331:0 332:0 333:0 334:0 335:0 336:0 337:0 338:0 339:0.001 340:0.0008 341:0 342:0 343:0 344:0 345:0 346:0 347:0 348:0 349:0 350:0 351:0 352:0 353:0.0001 354:0.0001 355:0.0013 356:0.0009 357:0 358:0 359:0 360:0 361:0 362:0 363:0 364:0 365:0 366:0 367:0 368:0 369:0 370:0.0002 371:0.003 372:0.0027 373:0 374:0 375:0 376:0 377:0 378:0 379:0 380:0 381:0 382:0 383:0 384:0 385:0.1281 386:-0.0682 387:0.0829 388:0.036 389:0.0251 390:0.0306 391:0.0201 392:0.0144 393:-0.015 394:0.1407 395:-0.0692 396:0.0823 397:0.0471 398:0.0255 399:0.0324 400:0.029 401:-0.0087 402:-0.0119 403:0.1403 404:-0.0662 405:0.0857 406:0.0445 407:0.0355 408:0.0465 409:0.0088 410:0.0331 411:-0.04 412:0.1663 413:-0.0239 414:0.0385 415:0.0425 416:0.0297 417:0.0353 418:-0.0437 419:-0.0315 420:0.0327 421:0.1259 422:-0.0575 423:0.0653 424:0.0491 425:0.0266 426:0.037 427:0.0274 428:-0.0133 429:0.0201 430:0.1707 431:-0.064 432:0.0694 433:0.0361 434:0.0262 435:0.0331 436:-0.0247 437:-0.023 438:0.0299 439:0.139 440:-0.0708 441:0.0886 442:0.0433 443:0.0236 444:0.0318 445:0.0256 446:0.0114 447:-0.0199 448:0.1691 449:-0.0364 450:0.0527 451:0.039 452:0.0392 453:0.0522 454:-0.0314 455:-0.0318 456:0.0405 457:0.1671 458:-0.0251 459:0.0498 460:0.041 461:0.028 462:0.0334 463:-0.0398 464:-0.03 465:0.0323 466:0.1316 467:-0.0418 468:0.0569 469:0.0504 470:0.0299 471:0.0393 472:-0.0087 473:-0.0201 474:0.034 475:0.1781 476:-0.053 477:0.0613 478:0.0354 479:0.0212 480:0.027 481:-0.0334 482:-0.0235 483:0.0277 484:0.1453 485:-0.0672 486:0.0863 487:0.0436 488:0.0242 489:0.0331 490:0.0286 491:0.0138 492:-0.0175 493:0.1774 494:-0.0339 495:0.0682 496:0.0494 497:0.0313 498:0.0531 499:-0.0262 500:-0.0237 501:-0.0193 502:0.1948 503:-0.0197 504:0.0726 505:0.0314 506:0.0179 507:0.0473 508:-0.0287 509:-0.0209 510:0.0308 511:0.1474 512:-0.0354 513:0.0418 514:0.0576 515:0.0269 516:0.0278 517:-0.0369 518:-0.0206 519:0.0243 520:0.1706 521:-0.0443 522:0.0546 523:0.0441 524:0.0232 525:0.0292 526:-0.0317 527:-0.022 528:0.0286 529:0.1974 530:-0.0082 531:0.0372 532:0.0335 533:0.0211 534:0.0237 535:-0.0337 536:-0.0256 537:0.0306 538:0.2056 539:0.0073 540:0.0338 541:0.0213 542:0.0062 543:0.0213 544:-0.0104 545:0.0059 546:0.0295 547:0.1915 548:-0.0083 549:0.0442 550:0.0381 551:0.0259 552:0.0321 553:-0.0377 554:-0.0296 555:0.0344 556:0.1571 557:-0.0407 558:0.0607 559:0.0416 560:0.0217 561:0.028 562:-0.0362 563:-0.0125 564:0.0216 565:0.1965 566:-0.026 567:0.0413 568:0.0427 569:0.0266 570:0.0257 571:-0.0393 572:-0.0246 573:0.0282 574:0.2061 575:-0.002 576:0.0295 577:0.0274 578:0.0098 579:0.0166 580:-0.0075 581:-0.0118 582:0.0072 583:0.1923 584:-0.0036 585:0.0273 586:0.0266 587:0.0116 588:0.0167 589:-0.015 590:-0.0135 591:0.0175 592:0.2003 593:-0.0079 594:0.0347 595:0.0263 596:0.014 597:0.0172 598:-0.0143 599:-0.0144 600:0.0204 601:0.195 602:-0.0334 603:0.0391 604:0.0274 605:0.0175 606:0.0193 607:-0.0265 608:0.0109 609:0.0207 610:0.0089 611:0.0282 612:0.0039 613:0.0385 614:0.1341 615:0.0348 616:0.1455 617:0.1452 618:0.1031 619:0.004 620:0.0124 621:0.0031 622:0.0228 623:0.0676 624:0.0111 625:0.127 626:0.2977 627:0.0387 628:0.0148 629:0.0113 630:0.0039 631:0.0412 632:0.0455 633:0.0205 634:0.1644 635:0.1398 636:0.0481 637:0.0214 638:0.0236 639:0.0092 640:0.0993 641:0.0793 642:0.042 643:0.2885 644:0.1065 645:0.1667 646:0.0219 647:0.015 648:0.0061 649:0.0879 650:0.073 651:0.0241 652:0.3377 653:0.3054 654:0.1203 655:0.0175 656:0.01 657:0.0037 658:0.0819 659:0.0517 660:0.0188 661:0.2808 662:0.1425 663:0.0947 664:0.0226 665:0.0293 666:0.0135 667:0.0588 668:0.1322 669:0.0655 670:0.1995 671:0.2029 672:0.1771 673:0.019 674:0.0162 675:0.009 676:0.0621 677:0.0516 678:0.0391 679:0.1652 680:0.0508 681:0.065 682:0.0187 683:0.0169 684:0.0111 685:0.0525 686:0.0643 687:0.0299 688:0.1683 689:0.1621 690:0.1399 
1 1:0.0454 2:0.0477 3:0.0573 4:0.0446 5:0.029 6:0.0303 7:0.0335 8:0.0423 9:0.0981 10:0.0758 11:0.0587 12:0.0408 13:0.0299 14:0.0338 15:0.0443 16:0.0689 17:0.0976 18:0.062 19:0.0352 20:0.0323 21:0.0466 22:0.0531 23:0.0637 24:0.0785 25:0.0451 26:0.027 27:0.0263 28:0.0393 29:0.0483 30:0.0592 31:0.0561 32:0.0498 33:0.0677 34:0.0586 35:0.054 36:0.0503 37:0.0448 38:0.0426 39:0.0391 40:0.0402 41:0.1646 42:0.0886 43:0.0595 44:0.0551 45:0.044 46:0.04 47:0.0397 48:0.0834 49:0.1633 50:0.0845 51:0.0385 52:0.041 53:0.0569 54:0.0576 55:0.0558 56:0.0835 57:0.0554 58:0.0302 59:0.034 60:0.0628 61:0.0682 62:0.0695 63:0.0583 64:0.0501 65:0.068 66:0.0492 67:0.0375 68:0.037 69:0.0417 70:0.0491 71:0.0595 72:0.0534 73:0.1638 74:0.0763 75:0.0347 76:0.0388 77:0.0472 78:0.0522 79:0.0626 80:0.0912 81:0.1674 82:0.08 83:0.047 84:0.0537 85:0.0564 86:0.0472 87:0.0435 88:0.0846 89:0.0571 90:0.0462 91:0.0492 92:0.0758 93:0.0733 94:0.0608 95:0.0423 96:0.0344 97:0.0493 98:0.0465 99:0.0341 100:0.0251 101:0.0289 102:0.039 103:0.0531 104:0.053 105:0.1026 106:0.0636 107:0.0354 108:0.0292 109:0.0298 110:0.0375 111:0.0551 112:0.0824 113:0.0983 114:0.0788 115:0.0462 116:0.0484 117:0.0471 118:0.0351 119:0.0363 120:0.0592 121:0.0439 122:0.0527 123:0.0476 124:0.0509 125:0.0541 126:0.0468 127:0.0303 128:0.0268 129:0.0001 130:0.0041 131:0.0134 132:0.0493 133:0.0001 134:0.0021 135:0.0182 136:0.0142 137:0 138:0 139:0.0002 140:0.0009 141:0.0005 142:0 143:0 144:0 145:0.0004 146:0.0111 147:0.0216 148:0.0625 149:0.0009 150:0.0299 151:0.1398 152:0.0513 153:0.0012 154:0.0194 155:0.0137 156:0.0048 157:0.0065 158:0.0071 159:0.0007 160:0.0001 161:0.0003 162:0.0027 163:0.008 164:0.0117 165:0.0013 166:0.0198 167:0.0304 168:0.0043 169:0.0044 170:0.0209 171:0.0176 172:0.0008 173:0.0155 174:0.0055 175:0.0027 176:0 177:0.0002 178:0.0007 179:0.0011 180:0.0004 181:0.0031 182:0.0106 183:0.0135 184:0.0014 185:0.0047 186:0.0367 187:0.0164 188:0.0002 189:0.0276 190:0.0365 191:0.0012 192:0 193:0.0009 194:0.0007 195:0.0094 196:0 197:0.0022 198:0.0224 199:0.0422 200:0.0004 201:0.0106 202:0.0239 203:0.0025 204:0 205:0.0442 206:0.0188 207:0 208:0 209:0 210:0.0003 211:0.007 212:0 213:0.0019 214:0.002 215:0.0009 216:0 217:0.0033 218:0.0004 219:0 220:0 221:0.0145 222:0 223:0 224:0 225:0.0004 226:0 227:0 228:0 229:0.0003 230:0 231:0 232:0 233:0.0005 234:0 235:0 236:0 237:0.0002 238:0 239:0 240:0 241:0.0004 242:0 243:0 244:0 245:0.0009 246:0 247:0 248:0 249:0.0001 250:0 251:0 252:0 253:0 254:0 255:0 256:0 257:0.0001 258:0 259:0 260:0 261:0.0003 262:0 263:0 264:0 265:0 266:0 267:0 268:0 269:0 270:0 271:0 272:0 273:0.0007 274:0.0002 275:0.0001 276:0 277:0.0002 278:0 279:0 280:0 281:0 282:0 283:0 284:0 285:0 286:0 287:0 288:0 289:0.0002 290:0.0003 291:0.0014 292:0 293:0.0001 294:0 295:0 296:0 297:0 298:0 299:0 300:0 301:0 302:0 303:0 304:0 305:0 306:0.0004 307:0.0012 308:0.0001 309:0 310:0 311:0 312:0 313:0 314:0 315:0 316:0 317:0 318:0 319:0 320:0 321:0 322:0.0002 323:0.0002 324:0.0004 325:0 326:0 327:0 328:0 329:0 330:0 331:0 332:0 333:0 334:0 335:0 336:0 337:0 338:0 339:0.0004 340:0.0014 341:0 342:0 343:0 344:0 345:0 346:0 347:0 348:0 349:0 350:0 351:0 352:0 353:0 354:0.0003 355:0.0002 356:0.0005 357:0 358:0 359:0 360:0 361:0 362:0 363:0 364:0 365:0 366:0 367:0 368:0 369:0.0001 370:0.0003 371:0.0019 372:0.0025 373:0 374:0.0001 375:0 376:0 377:0 378:0 379:0 380:0 381:0 382:0 383:0 384:0 385:0.1208 386:-0.0216 387:0.0365 388:0.0581 389:0.0215 390:0.0293 391:0.0416 392:-0.0189 393:0.0257 394:0.1314 395:-0.0447 396:0.0552 397:0.0531 398:0.0294 399:0.0416 400:0.0194 401:-0.0168 402:0.0316 403:0.1477 404:-0.0482 405:0.0733 406:0.0451 407:0.0312 408:0.0377 409:-0.0376 410:-0.0191 411:0.026 412:0.1409 413:-0.0444 414:0.0614 415:0.0564 416:0.0287 417:0.0487 418:-0.0184 419:-0.0173 420:0.0369 421:0.1441 422:-0.0466 423:0.0554 424:0.0581 425:0.0255 426:0.0352 427:-0.0246 428:-0.016 429:0.0271 430:0.1355 431:-0.0352 432:0.0547 433:0.0536 434:0.0261 435:0.0338 436:0.0186 437:-0.0209 438:0.0202 439:0.1768 440:-0.0265 441:0.0669 442:0.0408 443:0.0342 444:0.0421 445:-0.0429 446:-0.0281 447:0.0268 448:0.2012 449:-0.0022 450:0.0352 451:0.0282 452:0.0141 453:0.0242 454:-0.0363 455:-0.0212 456:0.0332 457:0.1675 458:-0.0544 459:0.0922 460:0.0461 461:0.0249 462:0.0412 463:-0.0325 464:0.0165 465:-0.0241 466:0.167 467:-0.0587 468:0.086 469:0.0468 470:0.0192 471:0.0352 472:-0.0416 473:-0.0161 474:0.0253 475:0.147 476:-0.051 477:0.0639 478:0.0521 479:0.0238 480:0.0377 481:-0.0322 482:-0.0183 483:0.0289 484:0.1477 485:-0.0448 486:0.0666 487:0.0487 488:0.028 489:0.038 490:-0.0317 491:0.0128 492:0.0281 493:0.1812 494:-0.0121 495:0.0533 496:0.0456 497:0.0236 498:0.0356 499:-0.0373 500:-0.0246 501:0.0342 502:0.1957 503:-0.0207 504:0.0652 505:0.0474 506:0.0301 507:0.045 508:-0.0437 509:-0.0217 510:0.0322 511:0.1616 512:-0.0519 513:0.1017 514:0.0406 515:0.0255 516:0.041 517:-0.029 518:0.0202 519:-0.0197 520:0.1285 521:-0.0486 522:0.0778 523:0.0417 524:0.0294 525:0.0299 526:0.0309 527:0.0117 528:0.0124 529:0.1543 530:-0.0377 531:0.0734 532:0.0509 533:0.0327 534:0.0387 535:0.0246 536:-0.0193 537:0.02 538:0.2121 539:0.0078 540:0.0313 541:0.0309 542:0.0046 543:0.0197 544:-0.0293 545:-0.0044 546:0.0276 547:0.1947 548:0.0082 549:0.0295 550:0.0316 551:0.0086 552:0.0241 553:-0.0164 554:0.0068 555:0.027 556:0.1953 557:-0.0143 558:0.059 559:0.0415 560:0.0305 561:0.0392 562:-0.0344 563:-0.0299 564:0.035 565:0.1186 566:-0.0532 567:0.0659 568:0.0378 569:0.0274 570:0.0339 571:0.0278 572:-0.0168 573:0.0223 574:0.1382 575:-0.0683 576:0.0895 577:0.0315 578:0.0236 579:0.0306 580:-0.0127 581:-0.0056 582:0.0111 583:0.1898 584:-0.0341 585:0.0847 586:0.033 587:0.0268 588:0.0425 589:-0.0199 590:-0.0164 591:0.025 592:0.2268 593:0.001 594:0.0275 595:0.0287 596:0.0199 597:0.0322 598:-0.0281 599:-0.0273 600:0.0439 601:0.1848 602:-0.0431 603:0.0961 604:0.0313 605:0.0245 606:0.0407 607:0.0179 608:0.0121 609:-0.0257 610:0.0064 611:0.0094 612:0.0018 613:0.0283 614:0.0453 615:0.0116 616:0.1057 617:0.2047 618:0.0375 619:0.0092 620:0.0097 621:0.0034 622:0.0407 623:0.0608 624:0.0156 625:0.1717 626:0.254 627:0.0389 628:0.0098 629:0.0115 630:0.003 631:0.0376 632:0.0615 633:0.0158 634:0.2108 635:0.3518 636:0.0738 637:0.0077 638:0.0084 639:0.0024 640:0.0603 641:0.0443 642:0.0178 643:0.3522 644:0.1503 645:0.0763 646:0.0193 647:0.0258 648:0.0074 649:0.0784 650:0.0925 651:0.0326 652:0.1696 653:0.3195 654:0.0709 655:0.0157 656:0.02 657:0.007 658:0.0558 659:0.0724 660:0.0258 661:0.1765 662:0.2652 663:0.0711 664:0.0151 665:0.0119 666:0.0044 667:0.042 668:0.0286 669:0.0139 670:0.0944 671:0.0564 672:0.0261 673:0.0194 674:0.016 675:0.0073 676:0.0611 677:0.0566 678:0.0278 679:0.2583 680:0.1634 681:0.0583 682:0.0211 683:0.0124 684:0.0061 685:0.0675 686:0.046 687:0.0295 688:0.2762 689:0.1457 690:0.0864 
